{
    "hidden_layer_weights": [
        [
            0.39678823073631825,
            0.9642356603589541,
            0.12079499885019303,
            0.2451350080338617,
            0.027809650393046333,
            0.04809588117814118,
            0.776605007051837,
            0.5606772305141646,
            0.15403301951832638,
            0.3029278695871936,
            0.8074958748378813,
            0.2344202328106639,
            0.9708827705254821,
            0.3770404276760303,
            0.8062229702204574,
            0.258218001161796,
            0.5845561031288753,
            0.6684380635262788,
            0.531771028486567,
            0.8012368276291588,
            0.834482763169554,
            0.19571610769539655,
            0.6262984880032746,
            0.05810611619739092,
            0.38948501992184226,
            0.5055594670430653,
            0.6213073894703823,
            0.5142533909998134,
            0.8690721731508103,
            0.8983274237292665,
            0.16311986508823148,
            0.12475426826575615,
            0.2139544928139327,
            0.9479298934980004,
            0.7073564893167875,
            0.5411276794194452,
            0.9469941297262113,
            0.7989837890711015,
            0.9251469124833864,
            0.4361920560102811,
            0.9438034531416092,
            0.26144260455699825,
            0.41812267362785405,
            0.39949925840557143,
            0.020416292536222066,
            0.33900424799222467,
            0.9446648260201707,
            0.18380904711589055,
            0.716852919910078,
            -0.043947313415658606,
            0.9042639985062679,
            0.02636980558961635,
            0.8563099109624314,
            0.8161215888142783,
            0.2602811284658328,
            0.24444337128622037,
            0.14897281552463773,
            0.869515450603666,
            0.48639854837099034,
            0.2210766147387976,
            0.310540549692195,
            0.6943720517486547,
            0.6969106476773892,
            0.6144016302605133,
            0.6372287854017011,
            0.18737689100686736,
            0.921746456954457,
            0.6764022891786037,
            0.5549677095008207,
            0.8902579713656117,
            0.9942767531658286,
            0.7222703612710947,
            0.9772450158081476,
            0.9474754891671225,
            0.4968884522378455,
            0.21023755175035602,
            0.6861821253245308,
            0.623503565608333,
            0.029568936284835517,
            0.05126466313010014,
            0.5227033529055963,
            0.9245633866658154,
            0.7996434194478318,
            0.821840981395861,
            0.27539502183697,
            0.9702341743605143,
            0.11879446867463511,
            0.3053323452344905,
            0.11789241844338084,
            0.4326494478587483,
            0.5099905584922749,
            -0.016451771339549587,
            0.29135119517973357,
            0.23172946326247762,
            0.608637838033028,
            0.8772194968232917,
            0.11925461706649057,
            0.2558123625970993,
            0.051089793439220904,
            0.8181378914244944,
            0.6319703908542059,
            0.6939957216491307,
            0.4685856631083192,
            -0.025227871994178495,
            0.6279233030304383,
            0.4857283962402064,
            0.654860183613904,
            0.3408929296645185,
            0.504851794548228,
            0.5617787594092893,
            0.8171820470968639,
            0.00024747943821050433,
            0.4378796530097197,
            0.12784799961038676,
            0.2601804679044133,
            0.03982892276640924,
            0.9329618848606025,
            0.5042151499586576,
            0.8770014572692411,
            0.043066237388698435,
            0.5964851469549474,
            0.7543671129018699,
            0.45849735437315475,
            0.6099104051206619,
            0.5492999036291117,
            0.2997181617903517,
            0.5734550601643903,
            0.4309823971594772,
            0.9978351013377202,
            0.8065901503078355,
            0.16702299462134096,
            0.7310214720894576,
            0.6899924400981127,
            0.32329562724077615,
            0.3959891133531025,
            0.7101710109017597,
            0.26306985938060173,
            0.5213028519891449,
            0.9463079658352853,
            0.9148041719457466,
            0.287846460402215,
            0.42622233698938916,
            0.6384327922734868,
            0.9250417662416012,
            0.020202765892838443,
            0.46048443605933476,
            0.05631123566170559,
            0.13226254424381786,
            0.4156174702566529,
            0.7805681218050912,
            0.6985826250395566,
            0.7741386882660841,
            0.5617785072549736,
            0.9246620238831402,
            0.8280585382005898,
            0.5827944140936291,
            0.655031002142275,
            0.04566223590486234,
            0.38046977218546946,
            0.8933769792127313,
            0.06708119851838114,
            0.433541748938353,
            0.6441720508621879,
            0.24886480439958303,
            0.117583372941689,
            0.1320612980247701,
            0.42620439371956076,
            0.4402394205184703,
            0.8406033908030032,
            0.7882913007674553,
            0.9251707924232011,
            0.6249989155100103,
            0.9342556031469788,
            0.8846484361524893,
            0.3012147592925074,
            0.4024933398519993,
            0.33351951166315286,
            0.13726018581567842,
            0.6551350601608781,
            0.08863896735804257,
            0.16709530186187987,
            0.0364041752791197,
            0.610901833864742,
            0.4332195522065827,
            0.6416498923669133,
            0.022058628552337593,
            0.9196940372445869,
            0.5564283177662086,
            0.09087175586615655,
            0.2355553027642455,
            0.5549028983295488,
            0.5569264107221394,
            0.49344565725332734,
            0.5867029005043166,
            0.1194960260245292,
            0.6893923423960846
        ],
        [
            0.6813479954754708,
            0.14101805130679632,
            0.3369448219808481,
            0.9363996949334022,
            0.6013951789114081,
            0.38028345720745915,
            0.596996006616892,
            0.3391955006122273,
            0.17245605872369604,
            0.5589460176975651,
            0.4760110362574322,
            0.5528046089956339,
            0.9800584262076232,
            0.4652949344529668,
            0.13131452290629791,
            0.6011527996450237,
            0.5939621679044415,
            0.8446300972824513,
            0.2662168307358289,
            0.5653268573584419,
            0.26291471032362934,
            0.790220843396048,
            0.5228046183466911,
            0.11164186679440535,
            0.6287540921107987,
            0.6859151213693422,
            0.24756924788967538,
            0.5756408524205092,
            0.3982161485545329,
            0.5835737490278375,
            0.4165960138518247,
            0.8652061814795659,
            0.5594213487808443,
            0.9256732021176345,
            0.36433554820311564,
            -0.019964911742183046,
            -0.01932283428175844,
            0.8173943239428826,
            0.30252148177040245,
            0.9739662478753117,
            0.10690042938912593,
            0.11829221671175298,
            0.9060776145361304,
            0.451640837121743,
            0.24532057549749028,
            0.6608321731792929,
            0.6943052004586991,
            0.47905427987953664,
            0.38011267003438437,
            0.577849769174023,
            0.760282412496237,
            0.7652281945954147,
            0.6355508441116264,
            0.31895149949440804,
            0.03324025862128397,
            0.40985805698174377,
            0.013939063313927783,
            0.4907411802533786,
            0.3199943914927251,
            0.7119607751596178,
            0.28592538154395225,
            0.7142295229723443,
            0.37078286591068105,
            0.41255580125771,
            0.081331651487947,
            0.02773494045232686,
            -0.004431101811496813,
            0.2896547323967558,
            0.7374379253025033,
            0.24735393663816233,
            0.6138265074035196,
            0.2162416873655508,
            0.29241634179795034,
            0.7399431290435391,
            0.39685047887050756,
            0.5960432180838701,
            0.8365284811610451,
            -0.13858587351609977,
            0.6946888178336048,
            0.5006054123656617,
            0.286114471666534,
            0.5712515672032391,
            0.8990806909542841,
            0.033612425434808586,
            0.377247200795513,
            0.04529497399659351,
            0.5736501266838107,
            0.12497318546121952,
            0.8376172902095346,
            0.23717687260059517,
            0.1485455660754783,
            -0.03982461250886231,
            0.5010232154160749,
            0.3921123246186304,
            0.19911284355936124,
            0.9428398722169962,
            0.34211328706486155,
            0.9108875291581959,
            0.10410473406945041,
            0.43486267488908176,
            0.600141848570551,
            0.23163499415840555,
            0.5066218587736678,
            0.47746742663639,
            0.21403693719648567,
            0.7852268751923093,
            0.35369609449957173,
            0.6448167744751807,
            0.7124617133949765,
            0.5209377009299945,
            0.1862139742818598,
            0.13418377633682413,
            0.6391873613062198,
            0.02389128488599673,
            0.17489873206007966,
            0.9528279744014491,
            0.010235471994103462,
            0.20930207123711841,
            0.5095769705763568,
            0.6992879531943649,
            0.23493463771423173,
            0.8784064391902275,
            0.31793530620446,
            0.10339925984258612,
            0.5892723969603711,
            0.9138289406353495,
            0.8642421977531382,
            0.07873884185234771,
            0.3004029635570834,
            0.22521129785977323,
            0.7185046858719234,
            0.23958245286477522,
            0.6297175479592959,
            0.6277309393174451,
            0.1574869613095866,
            0.7998603416291198,
            0.050092154186625965,
            0.3523104422081551,
            0.32107003473512175,
            0.605576185927892,
            0.7429250448408646,
            0.537643992918404,
            0.39608916209617856,
            0.27479755472778666,
            0.38835451773961777,
            0.037602937071157846,
            0.483661391302428,
            0.11097054257916283,
            0.8854496723546957,
            0.6995804629147944,
            0.9070557000594145,
            0.917186444893466,
            0.43004721081175645,
            0.4336771546915013,
            0.9416502235452983,
            0.5993338910540252,
            0.35190661010095164,
            0.5270567399077131,
            0.5761054176209415,
            -0.047891255860505556,
            0.7670828736169997,
            0.8858306990052601,
            0.5416113326013384,
            0.013401446843493998,
            0.7996828761892277,
            0.43172313203795637,
            0.7404058871673896,
            0.5863922258481067,
            0.3615945028909993,
            0.43707345641048645,
            0.5859774514823932,
            0.749600587677224,
            0.2860852687917033,
            0.28391004771403017,
            0.7451149292594789,
            0.7387685147759379,
            0.8141074297796844,
            0.8151231662498174,
            0.06389209122477443,
            0.8768359965170361,
            0.7618047601911055,
            0.747197832323388,
            0.9926798423306323,
            0.9804166911106815,
            0.3580172946005409,
            0.7565384505899534,
            0.6072387299938335,
            0.6025950840265265,
            0.7420968194496808,
            0.7747307447484436,
            0.8741444407014052,
            0.9189846397492979,
            0.3142877251508151,
            0.8465904096177427,
            0.41820758617238957,
            0.17948837741554852
        ],
        [
            0.5020908319338886,
            0.4299940085824201,
            0.4096149895001932,
            0.4992828411704243,
            0.054152693456834294,
            0.04861144407245221,
            0.8627626685404474,
            0.6124920154760468,
            0.9005676566922282,
            0.7496279269078369,
            0.287153531253065,
            0.9128227030998075,
            0.7976190013283908,
            0.2954384029343786,
            0.18278103633721882,
            0.589972182425054,
            0.4749066636809228,
            0.5883984434747915,
            -0.2808870759894327,
            -1.010115258259863,
            -2.0560805055032145,
            -1.333674659318888,
            -0.9733554481952106,
            -0.9549993267578302,
            -0.28833911391546774,
            0.8978855311148188,
            0.9655068386487583,
            0.41705908645484724,
            0.6705546673855407,
            0.09149781188803507,
            0.21606275646219036,
            -0.3379829989188283,
            -3.663147945873089,
            -8.988935897945707,
            -15.500830134501603,
            -19.766328851079905,
            -17.71519482202573,
            -10.267925772330232,
            -4.573818736807225,
            -1.7958659855407835,
            -0.2309061602223795,
            0.9896910640617285,
            0.5775133314558426,
            0.18449573195146196,
            -0.03579217574365293,
            -3.5563448124309507,
            -11.143416998162778,
            -22.45109908373109,
            -31.21604147322362,
            -37.6745269749503,
            -35.558145971991976,
            -26.8038787139627,
            -13.737272131590938,
            -4.528003832436905,
            -0.5136118346486223,
            0.7415832276896166,
            0.7555782597951348,
            -0.06806692618643774,
            -0.6062211077011788,
            -6.140905472558879,
            -19.049310371840434,
            -31.57600306709848,
            -32.699488301959896,
            -33.87330973396022,
            -35.192123165358694,
            -31.86966335120355,
            -18.15822376754232,
            -5.366835396605922,
            -0.7458435637972824,
            0.5641364715970502,
            0.6642688560644482,
            -0.0033835168383355317,
            -0.5144924215246515,
            -7.0599183598823165,
            -23.12353023750345,
            -29.000625103937747,
            -23.53382319340507,
            -24.512983990219855,
            -30.0243818460239,
            -29.792989036813704,
            -15.989468986494527,
            -4.2650778177893995,
            -0.4094791022836601,
            0.9647525081856076,
            0.8206840241903439,
            0.013024441415645644,
            -1.3540646031638124,
            -9.439484363779234,
            -24.50322135597972,
            -26.37207780189829,
            -22.329398889012605,
            -30.75427690934414,
            -35.48987765591529,
            -26.795319536145012,
            -13.966434845280075,
            -5.28663642190498,
            0.0961319702995661,
            0.21101199991737968,
            0.15562117570495732,
            0.2943573438892507,
            -1.3565862828643722,
            -11.151673813765699,
            -23.865687312235455,
            -26.07277741415834,
            -31.44865304237087,
            -41.058917172691025,
            -38.302955020193195,
            -26.279210886791414,
            -13.814534029005396,
            -5.18421230869242,
            -0.4843185591238493,
            0.36179024287402717,
            0.1593729515227174,
            0.04573368966106265,
            -2.2345297342198105,
            -10.236781712404456,
            -20.42764493277756,
            -23.602270489802084,
            -30.583105870649288,
            -38.38040080099232,
            -34.5899160169493,
            -25.04889733636738,
            -14.553675436097379,
            -4.575794892690193,
            -0.2433277860155967,
            0.880457651227655,
            0.8547715717144799,
            0.611538000967819,
            -3.3659880122879544,
            -10.332655989127806,
            -17.91076458146863,
            -21.58465506773866,
            -27.873742982978648,
            -34.305044507619385,
            -33.10274741249833,
            -24.746534887230155,
            -12.717811365802351,
            -3.7188876058403855,
            -0.14915493536586952,
            0.6666408579695391,
            0.3890146705182673,
            -0.23525404089203292,
            -2.7183077701357616,
            -12.066682472677812,
            -21.017562109267267,
            -28.794288326090648,
            -35.34159305329665,
            -38.50684492205729,
            -32.30850498415356,
            -18.938806121691222,
            -7.897836248937866,
            -2.2687208933433554,
            -0.02424356661378012,
            0.4004360387089871,
            0.13672686603578474,
            -0.06365090968106035,
            -1.288535175457139,
            -6.256018753370855,
            -16.494121155556982,
            -27.676119425723602,
            -32.58480776892345,
            -30.70971534275581,
            -19.01732309924675,
            -7.688869221763943,
            -2.469717106611055,
            -0.2334424944080661,
            0.149466091035902,
            0.6442098332137586,
            0.353168095774897,
            0.12810646612992047,
            0.6406617464056515,
            -0.8366444182825231,
            -3.975677298427648,
            -7.137547929805702,
            -9.26182349951704,
            -7.891220072053613,
            -4.793824336741673,
            -1.235527065724369,
            0.3806167243679592,
            0.1341381964723721,
            0.311199173786757,
            0.5783962955954989,
            0.5383199092509823,
            0.9171338973950323,
            0.33272844969985527,
            0.8187423580159018,
            -0.24767079478519877,
            -0.37642213534445207,
            -0.037274197586620456,
            -0.6539076751719963,
            0.32791593204199065,
            -0.16261583644254665,
            0.5894666082099068,
            0.5330442649715451,
            0.2386056487965067,
            0.1889364309883505
        ],
        [
            0.1471090338242668,
            0.1404748373769104,
            0.28795891116143635,
            0.8546703302053428,
            0.9886001770223152,
            0.10081034923285444,
            0.6391690465814647,
            0.47106040423910006,
            0.6833011356867105,
            0.3799470661303839,
            0.3864222808687137,
            0.06978353396273221,
            0.0751393737262636,
            0.7876307853042018,
            0.5049319800711434,
            0.8449166745204809,
            0.616379471829509,
            0.5986857911235357,
            0.28668227668667967,
            0.6133404334043436,
            0.786686247521213,
            0.24804023903952588,
            0.6941511561736722,
            0.0016964868212377276,
            0.3019155254565356,
            0.25061728414498424,
            0.3563015267217192,
            0.7997544411624794,
            0.8756171464440433,
            0.9421070317841728,
            0.8097219428387046,
            0.9772571487554683,
            0.07095287884528308,
            0.2662683478385202,
            0.30665913881897006,
            0.5628261873729611,
            0.9298530143375042,
            0.6963783840585434,
            0.5820221631484691,
            0.03518552917624362,
            0.7489583888858513,
            0.10033236710606575,
            0.9695863564277658,
            0.2409163490816278,
            0.2226270065734053,
            0.38239244344345086,
            0.828783209707652,
            0.33764280231856053,
            0.49679360148207985,
            0.7572547054764138,
            0.7502361353925536,
            0.9630565059231712,
            0.8448139396853106,
            0.7707828357532033,
            0.8658895326098884,
            0.8337349519561859,
            0.7579452988918015,
            0.4104649503503976,
            0.5339031133171167,
            0.4682089327832903,
            0.017755250643801613,
            0.46073046369592785,
            0.8544845876588153,
            0.43917286181572696,
            0.564514152387193,
            0.3581269061812602,
            -0.007514010660353245,
            0.5479745393002036,
            0.18947796011966467,
            0.08139209324727699,
            0.5218476101166606,
            0.1436095429574233,
            0.460424546601669,
            0.8655941210626983,
            0.18886998228675717,
            0.05066393724681778,
            0.6529906002852881,
            0.23150925992064747,
            0.3509154303869352,
            0.21253887922432385,
            0.47031804527060955,
            0.4784187361461229,
            0.1526581665404503,
            0.3708278182753827,
            0.41524849488616766,
            0.03700905318768178,
            0.1948794719395237,
            0.8371170569341508,
            0.01683607194068072,
            0.017161099217957273,
            0.626803840749865,
            0.049587173561723236,
            0.39530767585278315,
            0.8526351713239329,
            0.32312088304975245,
            0.31196369737654983,
            0.04151639579680372,
            0.23033431820026964,
            0.26231943553046794,
            0.5321577142198833,
            0.47624618303473476,
            0.5045879776570232,
            0.38141833905946704,
            0.767313821172737,
            0.2776540510106492,
            -0.0033257148293978655,
            0.5197253595908115,
            0.48734666483904787,
            0.696410654710551,
            0.5810007262749329,
            0.6764182729409103,
            0.8633769714836064,
            0.3936436730628064,
            0.38080304845746454,
            0.08486441365424989,
            0.35554073501134403,
            0.05922348821275404,
            0.4678278578301019,
            0.3772662526261898,
            0.8147485241814932,
            -0.014035892878952698,
            0.5664832109634871,
            0.5261529156166459,
            0.36159250807859283,
            0.6666095977857731,
            0.4219890705352034,
            0.4499141421796281,
            0.8639621474535717,
            0.9542745222950991,
            0.5639905646477485,
            0.4991857775472324,
            0.22731600366534688,
            0.8201076549048176,
            0.38327844533475597,
            0.5780818693995023,
            0.6593431329357511,
            0.4658451076374094,
            0.6454435456215116,
            0.47520057936798976,
            0.4923208387928215,
            0.6267916409707719,
            0.8189099506681182,
            0.38308809115580245,
            0.2707698934839938,
            0.8370009953564802,
            0.5460133271508844,
            0.20818750475217251,
            0.7371828587604604,
            0.7883337183814946,
            0.1602901138696194,
            0.7481441805754191,
            0.26748388946629087,
            0.8847931650222232,
            0.3968644740026894,
            0.8988904772602281,
            0.7665269627378858,
            0.4558695263552629,
            0.5139135701152269,
            0.08437454539973568,
            0.8428135695350243,
            0.46742692712556855,
            0.44067950068222594,
            0.07304311905641621,
            0.6547537360522733,
            0.3180570812148847,
            0.6508532043714765,
            0.7184671915039756,
            0.8702521952512804,
            0.6432455562292189,
            0.395620623951666,
            0.834165289273661,
            0.5857010143652235,
            0.6929808332789119,
            0.5453634992167876,
            -0.021725933663949076,
            0.38219657528091816,
            0.6323795854170258,
            0.6464607787270333,
            0.37487371176225354,
            0.6579305055746953,
            0.8822143304050118,
            0.7879792485025565,
            0.2386231557313643,
            0.7120342476653406,
            0.06282886655513827,
            0.6017771081954095,
            0.5553714833388204,
            0.6155453170725712,
            0.9385197844286517,
            0.14231095876716948,
            0.8807840095014835,
            0.7656695966123671,
            0.17585508566547436,
            0.28524134642589594,
            0.055363985162579295,
            0.8124060284124383
        ],
        [
            0.4242543097737984,
            0.0631060156476529,
            0.1276181999913583,
            0.5983374690369399,
            0.49210339104123896,
            0.3899124785717541,
            0.04496371613707114,
            0.8096481283162215,
            0.3496588969265407,
            0.6806961866627197,
            0.48362231369332126,
            0.5901893044567599,
            0.5416529172586363,
            0.1158968665561447,
            0.3476912259828826,
            0.4151236830737061,
            0.6629139471034525,
            0.7798268699509574,
            0.8650246869633585,
            0.8186183991303544,
            0.5675236616667924,
            0.28963544880875824,
            0.6079549432732795,
            0.6030391658290675,
            0.7782430718010288,
            0.2468112226628409,
            0.23719550278520307,
            0.3476290210837834,
            0.7187956541849849,
            0.6337728012548077,
            0.6023397119164915,
            0.6948954354861507,
            0.6452114996817273,
            0.534283034173097,
            0.932008418753216,
            0.6812296441301898,
            0.4203732185125245,
            0.8241105598050366,
            0.05929800922093946,
            0.28796207865926865,
            0.9538917902695622,
            0.19475226266421147,
            0.9477600797428635,
            0.2865729158386749,
            0.3895328582490478,
            0.4592149282026232,
            0.0111249089093978,
            0.05998516558516849,
            0.11951170993140761,
            -0.08445612568431032,
            0.8973197205471575,
            0.502660904025067,
            0.6507194998739894,
            0.6353190667716166,
            0.007076012172055146,
            0.05420456365696989,
            0.10046139308445831,
            0.5333236989873511,
            0.894602937019648,
            0.04606027649591225,
            0.8195365231953107,
            0.8671604174300822,
            0.6179944640443028,
            0.42240295072217054,
            0.08769618191834486,
            0.17659855008112102,
            0.534449572146842,
            0.7958914214040749,
            0.5978974351414323,
            0.09679041657066703,
            0.23915580610377932,
            0.6186050666339395,
            0.10809418503867894,
            0.2254953831575152,
            0.8681642779994915,
            0.24108732052338927,
            0.20697963886566292,
            0.6260165919047856,
            0.2635440457273715,
            0.9420897194713601,
            0.12403791351780297,
            0.4328413431330519,
            0.0996636002571498,
            0.26628579682299913,
            0.5612720967877112,
            0.750994159623073,
            0.20495126038372033,
            0.15148315029427883,
            0.26811006375639446,
            0.7184713580878199,
            0.8895851898070478,
            0.04399285272811399,
            0.14945300466081332,
            0.7271323289920193,
            0.375400883799792,
            0.9843430924196277,
            0.8167176885777756,
            0.6969108833048929,
            0.8418225312019524,
            0.921871269501068,
            0.8632638272149954,
            0.7807597958262245,
            0.7940986264280514,
            0.16629886450435535,
            0.11247844421464329,
            0.31233311341327763,
            0.5001549140062933,
            0.6664552197908882,
            0.11208079653105127,
            0.6942265776032703,
            0.36394289368897137,
            0.8931872617700275,
            0.7962387025384311,
            0.7516504979626083,
            0.0354056869542216,
            0.19750662339028394,
            0.16818811659756103,
            0.6344637595324323,
            0.2942545065642307,
            0.7348678390449226,
            0.8222141864580137,
            0.3626789628704052,
            0.5607044215388763,
            0.7280768605082774,
            0.20993597358367827,
            0.09655456159635352,
            0.6545222500855883,
            0.0061911330796053324,
            0.7345378375947096,
            0.43087106971438516,
            0.8436111134182976,
            0.2482603473622814,
            0.19619472762337556,
            0.4324915608552674,
            0.15799462783109264,
            0.9779939534269262,
            0.19526432341919842,
            0.9943426109343477,
            0.10175869510446457,
            0.379741498694146,
            0.694682840566,
            0.5414723109055558,
            0.8722180858973938,
            0.5332860107693865,
            0.8434502574268244,
            0.7951889522847212,
            0.4342106326658968,
            0.7149997426513979,
            0.767317387599681,
            0.9889111641216818,
            0.5140406583205837,
            0.7287590464957694,
            0.4295205648693519,
            0.8444408148130965,
            0.9229048991402551,
            0.960138996508257,
            0.1609826546712718,
            0.7359903376610734,
            0.8618681494847571,
            0.7893738187008399,
            0.4886185799542029,
            0.14545974919468468,
            0.45718923749296014,
            0.23075914513810095,
            0.36574050286389403,
            0.9259019308755074,
            0.7793520472711893,
            0.1452256415507066,
            0.589005475619851,
            0.27962583575921784,
            0.2978936389919017,
            0.2772272999374837,
            0.4404356641055717,
            0.1726025794162175,
            0.9171863481624049,
            0.08648687191948076,
            0.12380238727664038,
            0.3448551703344578,
            0.46259402627595075,
            0.8805159319653315,
            0.9738921667962225,
            0.5106327575113271,
            0.8883761116299174,
            0.457867657207064,
            0.8550602078482423,
            0.9545065594997642,
            0.04546899085863903,
            0.29098911404901173,
            0.18863065002211593,
            0.15279427803582082,
            0.9047385185353004,
            0.024067492667366675,
            0.7317464932948348,
            0.25266673250282984,
            0.2874179029227682,
            0.9437178709722933
        ],
        [
            0.5032386763281788,
            0.6718867464584106,
            0.1649343452745371,
            0.12452055496388266,
            0.39923970201746034,
            0.07032832282370868,
            0.145807466674177,
            0.7845730552389621,
            0.24684970209421198,
            0.39767284260422125,
            0.870881764314958,
            0.9019850552061752,
            0.6064918960908522,
            0.9411830041045328,
            0.8594838223922653,
            0.6186782066770449,
            0.6436521449760452,
            0.7498766106186764,
            -0.4891180313195775,
            -0.72890451342622,
            -2.748832573404515,
            -1.999227864831209,
            -1.9407219325875509,
            -0.5578777592840053,
            -0.21180193169695796,
            0.5301633165075428,
            0.3987664616032477,
            0.2009537689212573,
            0.5832917195660045,
            0.8766370586298528,
            0.7811231465962217,
            -1.022849491146606,
            -3.8956973245273083,
            -11.166655484614395,
            -18.81745112431429,
            -24.030377160107356,
            -21.998568157663996,
            -13.830967801947633,
            -5.989548430459102,
            -1.8754169585570621,
            0.3189587482762834,
            0.1632858545189656,
            0.8053065767217354,
            0.27087752143663557,
            -0.4138299991827063,
            -4.015423030760249,
            -13.193383076550102,
            -26.918286472079455,
            -39.35674619931967,
            -46.13868093627603,
            -42.9596324943787,
            -31.990534287559797,
            -16.651775123410243,
            -5.9748102638152645,
            -1.0319608415223454,
            0.4419635998084036,
            0.7811276063746168,
            -0.3008336318888402,
            -1.7997665163333247,
            -7.969623380263372,
            -23.550158588233938,
            -38.37575425925188,
            -40.391046039316926,
            -41.05237341929778,
            -41.568569675745366,
            -37.24338635314674,
            -20.893083793940384,
            -6.257289587540184,
            -1.399268043272141,
            -0.04265151968209946,
            0.8287920881715618,
            0.29620949966057974,
            -1.8751268790402664,
            -9.689165591113142,
            -27.75862763776328,
            -35.70241910117939,
            -28.27805444198064,
            -30.596070571880738,
            -36.20928510055902,
            -35.57877387304708,
            -18.114865289417587,
            -6.134691624403556,
            -0.431843449209501,
            0.7965377231314926,
            0.21542506614031703,
            0.8255157754159805,
            -1.498821921169253,
            -11.257077428418988,
            -28.938160696127376,
            -32.43053007227277,
            -28.263132278629904,
            -38.02557096331009,
            -42.24569849643861,
            -33.115439540110785,
            -16.162114404674575,
            -5.8218567216579045,
            -0.485670006625854,
            0.19139539570015673,
            0.34410966846238583,
            0.2630526011282582,
            -1.6852925732873545,
            -13.435866043256421,
            -28.179007103211184,
            -31.33402896543089,
            -38.44452507944525,
            -49.18313362097286,
            -45.86189737883048,
            -32.62975270834205,
            -17.493313797959036,
            -6.376725269286595,
            -0.3917955764797624,
            0.7935854074140639,
            0.8705627661926703,
            0.0786004671988593,
            -2.593310642131779,
            -13.495631483977467,
            -24.066946322552628,
            -27.78657512816875,
            -36.65698630159798,
            -45.419636106247715,
            -41.37474711594006,
            -31.128035273886894,
            -18.60225919156744,
            -5.9698642119877965,
            -0.24897238881382805,
            0.1570027403163961,
            0.418337408679736,
            -0.03481810475517132,
            -3.770135555695515,
            -13.81087579352737,
            -21.947384550887424,
            -27.598527126418915,
            -34.31593843550586,
            -42.221629635050256,
            -41.097815295611035,
            -32.28524960947003,
            -16.035437886999414,
            -4.495980431766428,
            0.08180530183395777,
            0.5734967037638162,
            0.710163458514865,
            -0.1701115183518439,
            -3.410560861787903,
            -13.820572343995389,
            -25.43332631187021,
            -36.361438663995514,
            -44.00373451532846,
            -47.537267064566265,
            -40.06808668718507,
            -23.57918046595662,
            -9.157667107567113,
            -1.8723246979255204,
            0.048437164037849305,
            0.49813700520727394,
            0.13613014137754814,
            0.8915458847786227,
            -1.1059504994096347,
            -7.81053398342636,
            -19.783303187081025,
            -33.74331055791986,
            -39.6460788008451,
            -36.78341699109518,
            -22.60557806430245,
            -8.841193191997627,
            -2.552509758348453,
            0.03291633911871663,
            0.6115215281066124,
            0.0376894898740893,
            0.7776441334363196,
            0.777068656884706,
            0.5060991399016352,
            -1.1233416285217843,
            -4.358300408070297,
            -9.543400477810136,
            -10.814913891263675,
            -9.816123863950022,
            -5.904801592612128,
            -1.294218864355739,
            -0.1149476874857667,
            0.4578653878032509,
            0.5636786186046595,
            0.8393637068244818,
            0.6013548952522397,
            0.5801393817910626,
            0.778528034377629,
            0.34406486962665905,
            0.06512752829390234,
            -0.5497648876928248,
            -0.24183920076452917,
            -0.744484564339118,
            -0.4136088313722183,
            0.6970624401921223,
            0.7261692429793609,
            0.07929552988777237,
            0.8885922304277882,
            0.7804409506178143
        ],
        [
            0.6732490087892374,
            0.1288079440311898,
            0.45752073684124844,
            0.6636687582336893,
            0.02143590455160671,
            0.4288096522175181,
            0.01368919817474101,
            0.13918466788060468,
            0.7984145359753405,
            0.6776654915840329,
            0.2553326649299871,
            0.4928507361784084,
            0.6895123619395467,
            0.24586677709186971,
            0.15698405969361962,
            0.6197643900646341,
            0.459619673258138,
            0.422040977749458,
            0.9387771644768158,
            0.9666778733098428,
            0.8617033281520189,
            0.4229953307133209,
            0.03470026072913337,
            0.7649717386408801,
            0.546239713494764,
            0.012706041041341404,
            0.9352486196618578,
            0.7195882457864737,
            0.9495191409232847,
            0.9622723470225184,
            0.6001029694739954,
            0.3012354772882751,
            0.6366821737163527,
            0.18149573635553082,
            0.4400701323796828,
            0.10067205852766001,
            0.19501296867885853,
            0.8026198003466342,
            0.2233386076514578,
            0.13423753201194216,
            0.6966587409039526,
            0.9027129085695498,
            0.4820286134325181,
            0.13553340776381523,
            0.589899838215751,
            0.5241922418800637,
            0.5962026273104112,
            0.7986303038865936,
            0.45379212820204196,
            -0.26071780204012673,
            0.13422641004091185,
            0.6273487467120853,
            0.9387349918975404,
            0.6013262194495883,
            0.010538858529651302,
            0.5537567489290679,
            0.3224660199097871,
            0.7120621259631663,
            0.2705299541692253,
            0.37967321585075187,
            0.8695116206382026,
            0.21241329374541082,
            -0.06969119712165506,
            0.32190797231958873,
            0.7968647334920174,
            0.6535811403351722,
            0.3580582199481783,
            0.776316958362539,
            0.5810832089785208,
            0.6735093752329783,
            0.6884874350937583,
            0.20299439426355884,
            0.08707421514136238,
            0.9725318849854472,
            0.974673559562852,
            0.6827419096080409,
            0.7243481598431238,
            -0.3877512080278935,
            0.604501385663044,
            0.9572664000992458,
            0.7728350903789056,
            0.49861334851895667,
            0.35307120952012266,
            0.9322063448657062,
            0.5257908324982192,
            0.954547923221518,
            0.8488369505491644,
            0.8092251413510962,
            0.35830562471970845,
            0.6063951297638698,
            0.7632411861069182,
            0.11289679166710061,
            0.4991731595418583,
            0.12093925945443934,
            0.17221147082342933,
            0.5427898717438643,
            0.13629049748139002,
            0.7095558575160534,
            0.3701545068370877,
            0.22303559142811244,
            0.7775242136686277,
            0.789419388122032,
            0.320935064668103,
            0.4539886996850861,
            0.7805499314751982,
            -0.09659971741532271,
            0.0015334232505712845,
            0.3478711953333819,
            0.553682221331433,
            0.04291052922055151,
            0.739201605077621,
            0.5066847072093033,
            0.24733684560158212,
            0.6048287002810259,
            0.5213759284007633,
            0.5036365004033576,
            0.880532306503986,
            0.9042200289569374,
            0.6687447861283492,
            -0.015125131160340928,
            0.05606168641109495,
            0.9045440345089409,
            0.5544589645729789,
            0.23943479062453496,
            0.8048211393007665,
            0.3792407547326457,
            0.5674143611510777,
            0.746767802987253,
            0.5274933081020213,
            0.4619007431633219,
            0.8784952301279346,
            0.6234739882059688,
            0.3148221711960678,
            -0.440100204613698,
            0.06775423020659878,
            0.139646554226587,
            0.4496588170341062,
            0.6885346372159835,
            0.2802127336740549,
            0.03308490653250511,
            0.6603479784224011,
            0.4008449404741441,
            0.9413471315349569,
            0.11709857864560919,
            0.9559637585828302,
            0.7071168571976608,
            0.6163721842129403,
            0.09453171474310497,
            0.09816143133870124,
            0.612953989430654,
            0.7695706014039564,
            0.3748255075443567,
            0.5893587675623582,
            0.10398489955080226,
            0.7780555163321687,
            0.9597108849806316,
            0.8616969822365035,
            0.2335755616510608,
            0.584336483745896,
            0.04160564697351849,
            0.39349765217393556,
            -0.3667468146258923,
            0.22053114401640045,
            0.590621574358086,
            0.07619365611453201,
            0.6129562244308491,
            0.45378965453077885,
            0.2545265499028057,
            0.4061174661718122,
            0.8735187738951781,
            0.6818442740475634,
            0.014928656437549469,
            0.9467943223231642,
            0.68212826469942,
            0.7010211501989012,
            0.8575749273167371,
            0.205229182734917,
            0.023227507206489646,
            0.2752110852854656,
            0.33038092261525454,
            0.043548708126865635,
            0.14658879003498732,
            0.9901425065266592,
            0.8762194706534543,
            0.458183645573921,
            0.1999157200486523,
            0.25757951461058287,
            0.48839075319795955,
            0.7374984573907533,
            0.4255801959824494,
            0.3477064236562298,
            0.7511925292451008,
            0.4649217777656313,
            0.566479261063983,
            0.26559574586292656,
            0.1905089864279186
        ],
        [
            0.7327296090725144,
            0.26974472952489403,
            0.3982867733440221,
            0.8498178722119166,
            0.24800653901122496,
            0.6946193405242986,
            0.10017640032642185,
            0.36645377926264433,
            0.8503594773701273,
            0.41182203196216277,
            0.6315092817350615,
            0.24910536016375492,
            0.9340146978713668,
            0.2972562203180115,
            0.47373235166484634,
            0.6618843720023951,
            0.5730857327528237,
            0.9994044550097106,
            0.8440508583830573,
            0.5589729490546417,
            0.8349958860527968,
            0.6794114550824716,
            0.1144547029880885,
            0.34772593738482355,
            0.46074598373249087,
            0.3392944582365128,
            0.5321803271847806,
            0.4405002737341817,
            0.40452933905362604,
            0.17392059764501816,
            0.6585524188478507,
            0.4568479446920117,
            0.051714561291268335,
            0.306552893894557,
            0.4520722532724633,
            0.5242453997326537,
            0.3258809412314524,
            0.7519880649587002,
            0.22449816305858,
            0.6192407884343747,
            0.5315247955090827,
            0.09793057831249607,
            0.7170251323699165,
            0.20900822122732607,
            0.7382513635300919,
            0.6615504315682987,
            0.748261255620375,
            0.45713565578322696,
            0.8049378009447761,
            0.561103206554243,
            0.2841975256314477,
            0.43309730155299964,
            0.1325027771834733,
            0.0744389287730028,
            0.14512613042433084,
            0.6713493189157609,
            0.3285668700743611,
            0.913089379549323,
            0.885721888472355,
            0.06707737240055327,
            0.2849909804899717,
            0.7102505108855336,
            0.035181599879050465,
            0.8251980934590578,
            0.7130137484093052,
            0.09883150857343662,
            0.45992196432922783,
            0.49822693213598274,
            0.8812617349603205,
            0.2729379151837503,
            0.6483646507856069,
            0.15554219964925886,
            0.0444587117650529,
            0.9433048831100537,
            0.3148417138682701,
            0.03568748260222683,
            0.8553311728376717,
            0.382261559380557,
            -0.016441736047790676,
            0.24293839145168886,
            0.5933841730175522,
            0.4134451937124727,
            0.21765228847255227,
            0.6759911386019084,
            0.016005652370128316,
            0.8563062343441166,
            0.33113098490574194,
            0.16269060704149227,
            0.4189837118050123,
            0.7929136782704913,
            0.9540100247255242,
            0.6921997084972314,
            0.3175496311827255,
            0.8186965711560616,
            0.453502659673128,
            0.18066086762363412,
            0.9667966311521773,
            0.08269828797594461,
            0.9173184664422389,
            0.7416936020168229,
            0.017972828742037518,
            0.2110845104745078,
            0.6909341941563294,
            0.05563850625612436,
            0.7519568025939921,
            0.2712940665747202,
            0.3923266232605047,
            0.4252730811260533,
            0.9240272295293619,
            0.7859231799552083,
            0.46357483732092236,
            0.604337257196857,
            0.990877830422844,
            0.722495407467465,
            0.48099500216239144,
            0.14151864579853496,
            0.9339853895090663,
            0.7950795336469975,
            0.046005878236314746,
            0.8207496143019405,
            0.7888380292852372,
            0.24432411883121655,
            0.37331816513383836,
            0.39652676573588724,
            0.3963559376400072,
            0.8543414895500888,
            0.2742442661208393,
            0.6801838211103084,
            0.655105044988594,
            0.5496097696890052,
            0.8349697548615328,
            0.7034461318318679,
            0.8062549905993042,
            0.5383354468763111,
            0.7104725951973749,
            0.14091112094677358,
            0.6843922075443434,
            0.20516717504570797,
            0.11718520150442095,
            0.3991122196431937,
            0.5970654361638539,
            0.8000801122665953,
            0.9601842236660632,
            0.5380133423257009,
            0.3211522553359642,
            0.19578558405685212,
            -0.01479340083507744,
            0.5593988597069892,
            0.7652658057310078,
            0.6335673975454748,
            0.7899202334113016,
            0.6966618416077385,
            0.4638659116644057,
            0.7001040468290332,
            0.38954952400042697,
            0.7990754761248978,
            0.24531022961763543,
            0.7202430793821107,
            0.36201326191264205,
            0.7155074439138894,
            0.9475981455640519,
            0.5594762045571765,
            0.9600584310715125,
            0.9869147013740485,
            0.9761251047175203,
            0.47591478253526953,
            0.2380547135601961,
            0.28692041979834093,
            0.49047617321317294,
            0.4462752119594752,
            0.3830957435492518,
            0.004962431627659727,
            0.33865168333341233,
            0.8238567943799517,
            0.3940899302565663,
            0.028520960192207477,
            0.7620438222964784,
            0.10064083469536118,
            0.7509133560423567,
            0.9704930400389598,
            0.55316227921386,
            0.8310359593680106,
            0.9007776117534207,
            0.48883988829940944,
            0.4143759938718666,
            0.13660376832590485,
            0.8963104071034482,
            0.4513895526999174,
            0.729353959254014,
            0.20383964430746218,
            0.10330729474321887,
            0.5043796756078359,
            0.20596950221444224,
            0.3372942985851831,
            0.7943114855258866,
            0.32351790877822
        ],
        [
            0.1904911194694989,
            0.7088486419482338,
            0.4268267148672836,
            0.7274530654226199,
            0.23550193560820576,
            0.15795028181754217,
            0.40377353262313886,
            0.9717123511041421,
            0.39925255541225835,
            0.8731595833066766,
            0.19332650776423166,
            0.454134301553348,
            0.4739674198173928,
            0.5686383164878689,
            0.6159867975187407,
            0.2183155923982176,
            0.3219630432414188,
            0.7288976805747053,
            0.36208913208545446,
            0.6119074652704536,
            0.7347722781904297,
            0.6936463083675012,
            0.801819014693357,
            0.8348616044035272,
            0.1958931349446177,
            0.07705080429788021,
            0.7236741864281763,
            0.1542794872216871,
            0.8759310047837818,
            0.45138154722996005,
            0.6672231510690596,
            0.21536267317024985,
            0.8076503327714953,
            0.7977513933891452,
            0.7536387195047242,
            0.46728211012487586,
            0.7725227818451753,
            0.2039271416978773,
            0.6795225839067824,
            0.5980266862258412,
            0.7113648488619937,
            0.7281042215757975,
            0.646747875891585,
            0.6379355399324109,
            0.8832174730623867,
            0.8801832209194229,
            0.8322589572193446,
            0.42974116653696176,
            -0.008047996395188276,
            0.7510080993713314,
            0.4787278792312681,
            0.24855299186691,
            0.589554502549643,
            0.24967377046628464,
            0.4179522696191247,
            0.9186376424172636,
            0.0017880536542000216,
            0.5822748982365525,
            0.37234115042134386,
            0.649895124040585,
            0.5536070524354189,
            0.2709684943280049,
            0.009527269557523341,
            0.5300763159949534,
            0.5146517943904214,
            0.9247772400746063,
            0.9944183578210872,
            0.7440397211798724,
            0.7074314932968807,
            0.8920071405526222,
            0.065295163869917,
            0.8392741619342521,
            0.860856326810685,
            0.8506411832492484,
            0.7770521411955614,
            0.21861195239809378,
            0.8422461749076793,
            0.39388602558846464,
            0.8404381493407793,
            0.593736788572193,
            0.6135420115365231,
            0.9539274918025894,
            0.09017836445767964,
            0.4795469155388522,
            0.426092780858223,
            0.20571863034592805,
            0.9794736475816793,
            0.2777112153617807,
            0.43307891156965217,
            0.7643567101167102,
            0.49393821769612006,
            0.09636295614384074,
            0.7494046927387509,
            0.030795774922958697,
            0.1579514867122725,
            0.7988241665635776,
            0.9263178914394198,
            0.31154820534950123,
            0.7352746362041795,
            0.9350072704293947,
            0.44893524835997983,
            0.35124741240204493,
            0.07442546772085758,
            0.8531013130259992,
            0.7642041889496944,
            0.21144430347849794,
            0.3677542785204136,
            0.9253999749899012,
            0.683552488152231,
            0.4685131542296875,
            0.24148027106813266,
            0.9698072844999274,
            0.9334972759895653,
            0.308662209271992,
            0.07849224133485384,
            0.03699746172325447,
            0.09801490679241429,
            0.5881621958250874,
            0.8275366556912565,
            0.41756184300727667,
            0.7971815018929733,
            0.13610081516505865,
            0.8007012034612744,
            0.38948788993592864,
            0.8291950458616407,
            0.0566937147367323,
            0.4146660167125658,
            0.710499110008284,
            0.3048107649921856,
            0.7394306364646669,
            0.6915291284035676,
            0.5639935893299941,
            0.10460338330284778,
            -0.0008553015316314077,
            0.8757711179666289,
            0.035726094051259344,
            0.9671802654815591,
            0.7457624677669231,
            0.036991282467681685,
            0.36090861943178215,
            0.8865158203477889,
            0.491854777992663,
            0.09771199908041261,
            0.28920591489522635,
            0.4678152485229041,
            0.6062177452174806,
            0.5366419881689077,
            0.6423514278262498,
            0.5051408442023213,
            0.38690651828396566,
            0.8505350131810048,
            0.49439361192856385,
            0.2784523188318934,
            0.4949277899189003,
            0.9810220565184236,
            0.1390147331248926,
            0.5669533260361391,
            0.25473897806479107,
            0.7057798664296808,
            0.10169616518673398,
            0.5674257603657519,
            0.3710962779035783,
            0.5094177556571738,
            0.7034424670718169,
            0.9524956037258527,
            0.04070831777543963,
            0.3652801766953397,
            0.3768872521166857,
            0.7466925860875976,
            0.5766398648156293,
            0.16196474787281812,
            0.8959607650876317,
            0.9560363293210764,
            0.2427267952878293,
            0.32799175114189594,
            0.05012842002358539,
            0.5056059316906972,
            0.9744797962605692,
            0.5413176903248541,
            0.4282421774425227,
            0.14538513780661927,
            0.9828963915498924,
            0.2892451071787173,
            0.6863823352269013,
            0.8519344128917733,
            0.6322947382413701,
            0.3449696097837641,
            0.06932535756938876,
            0.05379925250777711,
            0.784678378087503,
            0.09110892003670754,
            0.9112043517745927,
            0.9257333442295798,
            0.5364200328470111,
            0.014718828333113065,
            0.3562405783923948
        ],
        [
            0.3235179315956237,
            0.4514350595063166,
            0.49706646845983005,
            0.2779442535935619,
            0.35135036222163707,
            0.1126682663950729,
            0.6527144930809895,
            0.45693524011390196,
            0.3975307811395284,
            0.42912818509146083,
            0.4303462215702632,
            0.4353895166351146,
            0.1984218119709605,
            0.23334338406949443,
            0.4030046414532502,
            0.26372107231817754,
            0.9956040126151204,
            0.04723817729613126,
            0.041608587783064685,
            0.037188801863914045,
            0.3291293038634186,
            0.5496446806895067,
            0.23524759265469514,
            0.8333576305910237,
            0.14057276401435564,
            0.5192109394812517,
            0.531968026328791,
            0.5476708491596693,
            0.37982622988030146,
            0.005734848923542377,
            0.0677801615977638,
            0.5868690339561105,
            0.8208094493393802,
            0.9641199821622962,
            0.8576885183015607,
            0.9679530647348447,
            0.7776892128149192,
            0.05467248105788492,
            0.03215139221710095,
            0.3255766324765039,
            0.7501374441897585,
            0.7083731808054375,
            0.1049061436860086,
            0.416743188943384,
            0.9651693942016304,
            0.6592001081156811,
            0.5193780790527831,
            0.29479271942155544,
            0.8771892461490887,
            0.2245423310246175,
            0.7854607294715396,
            0.028164305338992286,
            0.14706123813607805,
            0.5875803209546716,
            0.6845596460672586,
            0.41649735696647316,
            0.6871363847981925,
            0.8721728207957895,
            0.8139487918390578,
            0.3386378499821625,
            0.716374454565357,
            0.3663121485250013,
            0.7645467366189473,
            0.7917529242264286,
            0.32227724862268514,
            0.5070406725719515,
            0.7872460515466498,
            0.7744901640454871,
            0.08396857154938492,
            0.9394149188766099,
            0.41793683789110353,
            0.9693916102727265,
            0.700268895160549,
            0.9514878744003479,
            0.4414077000884344,
            0.07671355845496124,
            0.7353701666831428,
            0.7086797646710806,
            0.6084486390510101,
            0.377354651244848,
            0.9104564561771707,
            0.8413064212433164,
            0.6509189628667239,
            0.9486688942613705,
            0.06767929950842531,
            0.3418513056665008,
            0.398328490771429,
            0.2990244619822899,
            0.6615437661806303,
            0.49925479052489424,
            0.6600171135980628,
            0.7114360896531461,
            0.9518566572216816,
            0.8012872366777917,
            0.48300621217392287,
            0.903426344840086,
            0.1299730105503933,
            0.09648106528750404,
            0.1445037380131878,
            0.6280787487515547,
            0.4826552070277211,
            0.7572486261480974,
            0.28614599049903844,
            0.6807145309042479,
            0.052840108110351364,
            0.39813081357408636,
            0.1410833688138529,
            0.07374389656182312,
            0.25316204119163005,
            0.8656704756757034,
            0.5901829424730035,
            0.6196581818470688,
            0.3780074935060957,
            0.18511868129177125,
            0.5723333074563537,
            0.32849716863731315,
            0.06869438755110163,
            0.11043997571648162,
            -0.005021996862255317,
            0.6177498880776143,
            0.45716110718804004,
            0.3108925420085462,
            0.4394056180584935,
            0.1420511752497723,
            0.06823217808294346,
            0.6577093358184476,
            0.9708121455387564,
            0.8376503285766179,
            0.042878475379439535,
            0.8781851254890446,
            0.030358278775478795,
            0.946438877884218,
            0.9505540612229227,
            0.1784027960737235,
            0.4255774887283282,
            0.13739755224568861,
            0.26856552039475573,
            0.791124335351971,
            0.5965257137158537,
            0.9194821342659246,
            0.4938172208631714,
            0.9518378818362292,
            0.6083289462290487,
            0.8402820658785033,
            0.052066636187678636,
            0.43519013425255765,
            0.6501819201379887,
            0.7897829374473637,
            0.16317838787891145,
            0.7926943524376988,
            0.2634285983029507,
            0.315744369799676,
            0.757330513792049,
            0.9857326260393451,
            0.31564723886217244,
            0.2157566507534552,
            0.5037847583565385,
            0.40662759688147393,
            0.7688363911259078,
            0.7787714854055025,
            0.5872760573937772,
            0.877662788435066,
            0.6336667151904809,
            0.25794695645291665,
            0.46256846189571993,
            0.5247956616687746,
            0.04633234483779594,
            0.1917881887526644,
            0.2000606985344071,
            0.42792778349166405,
            0.9536899460497836,
            0.6756361337178257,
            0.9226298865613447,
            0.7273807381562263,
            0.9104610181571724,
            0.9265458133683567,
            0.07035010625822107,
            0.6374431302337341,
            0.19292028955961063,
            0.659880889131941,
            0.21986199732683012,
            0.8985979098814445,
            0.5915682342024975,
            0.24251174004509662,
            0.8250806254865161,
            0.6868179780118753,
            0.22229988791674501,
            0.3728891022894594,
            0.47672122318496296,
            0.2601515549528329,
            0.4401731030908143,
            0.368728910294438,
            0.6249714283743443,
            0.37287026551900865,
            0.47478694950060946,
            0.7007919792175575
        ],
        [
            0.5499292673491202,
            0.9751842990891028,
            0.7811853248011963,
            0.44829199751812576,
            0.23719134281266682,
            0.6945024802689533,
            0.3611011386820098,
            0.7627956745912565,
            0.5128310453617692,
            0.5743807996027852,
            0.37770869136635477,
            0.6260462154840062,
            0.8378834980743006,
            0.969086354469536,
            0.43819284422724464,
            0.5942137682721709,
            0.919558756506363,
            0.26411828587629804,
            0.021104159555128416,
            0.03559539606586975,
            0.6003917163771364,
            0.9638148012123962,
            0.25977612293906993,
            0.3020433939690523,
            0.5136885861031807,
            0.44562988007735416,
            0.7752713612565166,
            0.2234656880982474,
            0.9530369066018506,
            0.5834416994121728,
            0.7837865872575223,
            0.09065666071912,
            0.28797121349447413,
            0.9380235759965849,
            0.30202872837467043,
            0.5575549054958762,
            0.4735422153954977,
            0.38710408100443033,
            0.017103980389677278,
            0.5255967597820685,
            0.03742199163976049,
            0.9408773816103905,
            0.2925586789493706,
            0.2901139019354642,
            0.285651291643893,
            0.6566438531366208,
            0.6671950239501857,
            0.6536872583813712,
            0.49568042316444694,
            0.8257094218325203,
            0.3026134670345013,
            0.8634454114235957,
            0.39946124051766496,
            0.9717187994072527,
            0.2829632274428824,
            0.381387963056203,
            0.4875052923121502,
            0.7174862035249084,
            0.30018963632578827,
            0.4900147773154412,
            0.24084027270060862,
            0.002633570197975176,
            0.3322237462537209,
            0.5121839077999065,
            0.5994452278190183,
            0.11771525375797152,
            0.05007230104454767,
            0.06614120998192322,
            0.1906862197029914,
            0.9025794149482907,
            0.9948648216733271,
            0.6883602072292422,
            0.5427038232412148,
            0.7817591679760654,
            0.36485327663772343,
            0.12690259712301125,
            0.9056298338823997,
            0.5130215620810468,
            0.7510211275475097,
            0.7842705218803359,
            0.8577268786156239,
            0.38302177145107935,
            0.8810846890604231,
            0.5781126693422882,
            0.16508297963610258,
            0.8554395297770877,
            0.7619076430023103,
            0.13102527247473927,
            0.6838090475611853,
            0.1718424738369557,
            0.5478706628848817,
            0.7472878553080168,
            0.5735536694789486,
            0.49745907349020446,
            0.5470413665430585,
            0.4739703188868573,
            0.45859055860232156,
            0.1896435497782579,
            0.16684890806959962,
            0.22056180361831818,
            0.5192275745757681,
            0.1855322878226999,
            0.5505298679997265,
            0.021066791331904495,
            0.08254455929300523,
            0.06302637987345475,
            0.6854067609158542,
            0.9341883747407596,
            0.5010716848010539,
            0.715545505268006,
            0.13667006751794633,
            0.08345370395002834,
            0.4701279776719721,
            0.6439778495681111,
            0.5674069837622193,
            0.5747393690455324,
            0.5961202278462788,
            0.32260759555078056,
            0.7366153149952165,
            0.004278663597838802,
            0.9500447482707252,
            0.3771632402276865,
            0.4643541593270968,
            0.1074743055563379,
            0.9588047274017497,
            0.3982682734048147,
            0.6085815488462958,
            0.9629802270892283,
            0.5715735216732748,
            0.40695497242570805,
            0.9005356043643886,
            -0.013129081308897098,
            0.11343669343827682,
            0.23312512627485005,
            0.21790721739629348,
            0.1852757354942373,
            0.5069590744107976,
            0.7692330524798651,
            0.5121601357960273,
            0.5227307030190363,
            0.40493269856172254,
            0.6111555247290114,
            0.532921961268828,
            0.3763486519123017,
            0.8290508485797031,
            0.6668076024670468,
            0.5944145807351752,
            0.4096845850724474,
            0.036211540104964704,
            0.17297144404789982,
            0.10048958191581975,
            0.8937583375927411,
            0.4352919247845241,
            0.4455269897071957,
            0.7132794255550579,
            0.4424693247715116,
            0.1417742410536954,
            0.7955811904382443,
            0.8462311522271067,
            0.12339072929050829,
            0.6947664454169166,
            0.8799446056188513,
            0.23776249162919114,
            0.13723929011599584,
            0.22078449957802906,
            0.5908391751428518,
            0.15259342786438163,
            0.8525245817846537,
            0.6524824300741643,
            0.3817827290044786,
            0.8787958062209297,
            0.027493196977950857,
            0.926374294166821,
            -0.007508402768018287,
            0.21454773872125787,
            0.3912640670790624,
            0.631431029859748,
            0.04840775086256772,
            0.16610991842698047,
            0.1846688338054403,
            0.9464641530164589,
            0.9497065728478641,
            0.5520518772830711,
            0.9053360149226055,
            0.9836310405027502,
            0.7754417820396571,
            0.21377615702055933,
            0.1154831142813138,
            0.22227596144774772,
            0.48689075410399774,
            0.17482532339233467,
            0.8412967105628,
            0.17808397792466812,
            0.10964990305672559,
            0.3975654928911668,
            0.9253447019322506
        ],
        [
            0.3383415135573824,
            0.8827164031880871,
            0.7270947849696944,
            0.40873422721326214,
            0.10161385341596185,
            0.6799648750608341,
            0.018927063155491697,
            0.41863177446167416,
            0.5681688901222129,
            0.6683129153059869,
            0.6629511585390409,
            0.538348874315165,
            0.3688434942576163,
            0.6424652601616639,
            0.8750989391570544,
            0.8026570370335595,
            0.29105921176191557,
            0.6640006323812097,
            0.4343419135976867,
            -0.07577778342540874,
            -1.3801406835198295,
            -1.929865119577757,
            -1.1326751624830271,
            -0.33632815912839176,
            0.6820764910374472,
            0.2602953824833162,
            0.3490675142488516,
            0.5662488202304037,
            0.7092489536720654,
            0.5595645135444953,
            0.024077834196667283,
            -0.47198387943880543,
            -2.2428559419315905,
            -7.244014712193061,
            -13.618872861778275,
            -16.24865202268943,
            -14.427288438772377,
            -8.608850881121237,
            -3.875118569332119,
            -1.36273278969498,
            -0.28188363917139003,
            0.34185282175011517,
            0.8544598063518557,
            0.6329925240138891,
            -0.47561146884594907,
            -3.2354022448563446,
            -9.647170353427216,
            -19.453902040422665,
            -26.72995709119664,
            -32.16550036048306,
            -30.97234131236271,
            -22.874456241131586,
            -11.483175645121069,
            -4.114044332029055,
            -0.41850348489171735,
            0.25594106705469566,
            0.2970503681842141,
            0.45655523944172594,
            -1.2649720875790207,
            -5.695986754879439,
            -16.509046260486148,
            -26.529392955406948,
            -27.64344941473642,
            -28.707987244554424,
            -29.426883703585947,
            -26.29489554370814,
            -14.556398501584724,
            -4.793972401804843,
            -0.19755543289233232,
            0.8074784284624272,
            0.5916886895615179,
            -0.09673501270477672,
            -0.8618674256380943,
            -6.097225801948654,
            -19.175535110091143,
            -23.61427903452414,
            -19.645757781463157,
            -21.504694566242993,
            -25.26866970815509,
            -25.028826136324955,
            -13.203803639467829,
            -4.2958365433538015,
            -0.4991434146898853,
            0.13697840846707793,
            0.30745522493420785,
            0.2820797872659871,
            -0.784993896431402,
            -7.55036297272019,
            -19.88655500145406,
            -21.73498807924954,
            -19.448030165406813,
            -26.463638181630674,
            -29.72102510431972,
            -22.348722163689906,
            -11.782574040976193,
            -4.6317700244411295,
            -0.4110856742949514,
            0.5383542479412464,
            0.5162364077832182,
            0.7349060079945048,
            -1.2357915828531567,
            -8.819045058661883,
            -19.427071938449384,
            -21.777145447535744,
            -26.145606931379213,
            -34.30925300063374,
            -31.341538777272145,
            -21.18714209998763,
            -11.091918364607624,
            -4.655575924797253,
            -0.2577065347606376,
            0.7012828647853424,
            0.6141735682958968,
            0.5710256244103028,
            -1.9567192610858197,
            -8.509904030128673,
            -16.546690226308662,
            -18.723656744374267,
            -25.07776098163139,
            -32.246240089145516,
            -29.132416352958682,
            -20.715299672262145,
            -12.126445717030439,
            -3.783460267925503,
            -0.5659553823164796,
            0.7058736933920987,
            0.4445342295895319,
            0.47512650658974903,
            -2.8063073270743106,
            -9.072645062409038,
            -15.294979941427673,
            -18.03116681969451,
            -22.86423441026729,
            -29.324234140481146,
            -27.55137581228784,
            -21.193496537466093,
            -11.28420595137854,
            -3.186510563102013,
            -0.1195766311143145,
            0.5239807548811697,
            0.8720717155582874,
            0.41281048848816226,
            -2.3102881779957434,
            -10.57946395725499,
            -18.343522610489487,
            -25.18294057318093,
            -29.923399767631956,
            -32.032156608604545,
            -27.238387289658327,
            -15.8111822573949,
            -6.895257818013793,
            -1.5677679949374836,
            -0.12529001733053494,
            0.38841481214479173,
            0.28705721798345424,
            0.07290672984790433,
            -1.0284368043277894,
            -5.276682408693101,
            -14.540520375487903,
            -22.86511531425587,
            -27.402738254224058,
            -26.3176054522674,
            -15.994968952420589,
            -6.1109106844623025,
            -1.4191689022092386,
            0.27421931944037153,
            0.7660526511681492,
            0.2539540100212297,
            0.24155884009743853,
            0.8177388289576482,
            0.643993110459613,
            -0.3171180944055471,
            -2.8810684113928215,
            -6.466753433959017,
            -7.803948356043715,
            -7.162021933611967,
            -3.93312469679737,
            -1.2224482673573556,
            -0.14612352093490213,
            0.5386264568716458,
            0.3123209016010864,
            0.0038675229187946003,
            0.1024225358828295,
            0.528357095982031,
            0.893001042548435,
            0.08079290463132444,
            0.35751326854008425,
            0.27377452043273,
            -0.46016158249380246,
            -0.38970902283994735,
            0.15070674955237567,
            0.43706418378110506,
            0.44708515083362005,
            0.4952230502011513,
            0.2922382013156939,
            0.5682236208858313
        ],
        [
            0.9930652347983836,
            0.9922266235005683,
            0.6414095143298959,
            0.15118412774380424,
            0.8167318638937194,
            0.9287203891691885,
            0.41685476611104566,
            0.23946586371786482,
            0.9411398432969554,
            0.8520191602542033,
            0.22401811951190315,
            0.5044327008192512,
            0.1467962840536543,
            0.0333501714989898,
            0.6338276071938005,
            0.0515712788415175,
            0.0027017152100511912,
            0.4461546677531391,
            -0.05344530392090138,
            -0.5760841961181254,
            -2.2290001490575175,
            -2.269598772822978,
            -1.901986768683215,
            -1.1586181900877939,
            0.020127518256250948,
            0.03970943552161698,
            0.5886415864583205,
            0.6232092010221116,
            0.4027213232280224,
            0.996234173111978,
            0.4973394837406665,
            -0.6169592678659462,
            -4.410286169097882,
            -11.68331089827903,
            -20.817005385138305,
            -26.951956788021047,
            -23.59412014762455,
            -14.040559961579513,
            -6.615281879943347,
            -2.5346862530698946,
            -0.023798650124775264,
            0.7327173784912953,
            0.6165964375674103,
            0.046904011999326166,
            -0.8333415214141704,
            -4.796520904186701,
            -14.933419405993495,
            -31.284458930227867,
            -43.12019588657665,
            -51.50595959013876,
            -48.67650395268517,
            -35.558170735824625,
            -19.23446200624662,
            -6.509646382115115,
            -1.4738996032804492,
            0.20509443647268366,
            0.24471251677494796,
            -0.35657806017231264,
            -1.657147647101234,
            -8.652954003705158,
            -26.111040074470623,
            -42.64286004764809,
            -44.701963919029915,
            -46.13560569678697,
            -47.260272911090794,
            -42.56499800423443,
            -24.393254954200714,
            -8.155163780327449,
            -1.2985915670932835,
            -0.07846406523671536,
            0.6445723513948638,
            -0.3061110296324216,
            -1.0503503953038498,
            -10.401782565437284,
            -31.62093466758505,
            -40.51526933815079,
            -32.320130486158,
            -33.49067293570823,
            -41.33137661494428,
            -39.55652413113551,
            -21.884784006252815,
            -6.894004036723258,
            -0.8133407339324672,
            0.9487084674839847,
            0.7192129790277668,
            0.5184188681092533,
            -1.3753403323694307,
            -12.91619187901718,
            -34.46592628100342,
            -36.63650051308923,
            -32.09277681127036,
            -42.29259170460069,
            -47.2376513865133,
            -37.139767488500155,
            -19.048137736817132,
            -7.14901349929558,
            -0.7663451060064268,
            0.8786050989774369,
            0.4296330912725969,
            0.5121665444678186,
            -2.211910971151456,
            -15.849256690261507,
            -32.78285083970937,
            -36.4598230961265,
            -43.72237990429093,
            -55.64442875780381,
            -51.546873182192414,
            -36.24902448560829,
            -20.02627825174914,
            -7.083880147249377,
            -0.6127548685916483,
            0.06538697274738682,
            0.4342127067109806,
            0.2723745213243478,
            -2.588763701522405,
            -14.440593945305125,
            -28.10234828749099,
            -32.17651512778383,
            -41.27221568727691,
            -50.95840147656887,
            -47.6093480199151,
            -34.74565835861595,
            -19.798387690736718,
            -6.446376494531041,
            -0.2988663992467801,
            0.0036186858538166666,
            0.7071646640041244,
            -0.4263195340201762,
            -3.9419323049789123,
            -14.427353815458691,
            -24.299700073167344,
            -29.9603524329116,
            -37.946735229826224,
            -47.221421515480124,
            -45.31194171765746,
            -33.90653200413609,
            -16.89247915171836,
            -4.588609947542767,
            -0.6110574402150581,
            0.5107146229008817,
            0.6926573289293412,
            0.026830284700624388,
            -4.094791073975134,
            -15.505332210543132,
            -28.859920205545148,
            -40.0228842716859,
            -47.63686425843495,
            -51.718340799266066,
            -44.30901789846434,
            -26.344896257378867,
            -10.57465069399655,
            -1.8481571240800208,
            0.30727105320909504,
            0.6641431484046103,
            0.4256185682831978,
            0.8134946035731258,
            -1.427779917495075,
            -8.314209776568624,
            -22.542040039136808,
            -37.85012398108032,
            -44.524269894209816,
            -41.8050180787133,
            -25.755066804988775,
            -11.358918885370022,
            -2.7243966725388495,
            -0.9073198189282567,
            0.4740104844062208,
            0.6344349454786642,
            0.9700278093937627,
            0.18476407323848562,
            0.6097690578801733,
            -1.0630490115694995,
            -5.051411458034022,
            -10.029674651299853,
            -12.619563906711143,
            -10.772156072482614,
            -6.11029409514495,
            -2.047706362762491,
            -0.6457597367257908,
            0.44459454234841106,
            0.6271317180688198,
            0.30558643764201804,
            0.7610516071070081,
            0.2455113229204181,
            0.5949494341468524,
            -0.14335706172030013,
            -0.3992881574044526,
            -0.5141055012906931,
            -0.21667374539220657,
            -0.695652752121012,
            0.10367442498475576,
            0.4130063227433213,
            0.6765780204522167,
            0.8480579463736303,
            0.3540869563789583,
            0.1998084898550689
        ],
        [
            0.7887255680590183,
            0.6057577414701917,
            0.7858859671889061,
            0.5177307223257419,
            0.6069552483300272,
            0.17542294881801967,
            -0.004918582073632305,
            0.48674370161098557,
            0.3904373460259455,
            0.8379644267408493,
            0.27685288559008714,
            0.594350727176743,
            0.1909411555045774,
            0.2859183828046455,
            0.099927315418151,
            0.8618459386966131,
            0.7410589039041202,
            0.14096998366270497,
            0.06630116069532158,
            -1.0544673116362415,
            -3.6061944071678678,
            -3.863874268883635,
            -2.3697952254504044,
            -0.7702825334038159,
            0.11474228051454359,
            0.47420642210882163,
            0.8677765670935523,
            0.5160035850494603,
            0.653200493402426,
            0.8168433026834996,
            0.7376258341370084,
            -1.637028214040453,
            -5.761549514010444,
            -15.011071853709192,
            -27.048022921316832,
            -34.04666619620939,
            -29.983541839369035,
            -18.961678443243343,
            -9.106545664555378,
            -3.2811519577200365,
            -0.46748491642444207,
            0.20206663559601462,
            0.7019890654316774,
            -0.07539751495056976,
            -1.2281789422601725,
            -6.208328494585231,
            -19.27149219438324,
            -38.2885920249602,
            -55.69242664427028,
            -64.89431482207712,
            -60.69790764964045,
            -45.086106728413185,
            -24.36702400726696,
            -8.433572743697711,
            -2.2155697889180996,
            0.2005702572767193,
            0.8078503041024837,
            0.027944544309703313,
            -2.0495906811811277,
            -10.831896920251427,
            -32.069690459541995,
            -54.01159720756767,
            -55.76551465229321,
            -55.80976493141656,
            -58.482195653307194,
            -52.588820900505176,
            -30.51988023683166,
            -9.801429180919655,
            -2.2386797143040145,
            0.022275795783605987,
            0.781541715472472,
            -0.01856439311391302,
            -2.137438786128877,
            -13.67286663671478,
            -39.56335552538276,
            -50.82687726652933,
            -39.37351431098292,
            -40.851645359840234,
            -50.861207535069354,
            -49.840117095800416,
            -26.29934058386544,
            -8.796337863549448,
            -0.3719811199308202,
            0.47787377959420746,
            0.6436039414844777,
            0.4716571625262723,
            -2.718418502500357,
            -16.74181503762184,
            -42.28949224757038,
            -46.241035175384205,
            -39.988343230003345,
            -53.3652685638142,
            -60.28766597829369,
            -47.67979483658192,
            -23.607903858564953,
            -8.216558770063662,
            -0.7158111741535423,
            0.7297695056667712,
            0.9185716192082014,
            0.35535297955358985,
            -3.1246883841350717,
            -18.966061748081106,
            -41.68066593134124,
            -45.93327757742886,
            -54.71416647893304,
            -69.25592226870313,
            -65.55471496129206,
            -45.638146523357996,
            -25.01692078460974,
            -9.124275253855467,
            -0.6415340970151071,
            0.6766855766411569,
            0.5107882329718324,
            0.38978191428844583,
            -4.214694988107436,
            -19.15442844843857,
            -35.12681154946877,
            -39.886344626248466,
            -51.25625282742886,
            -63.30740161350013,
            -59.44811626428405,
            -44.28514440631396,
            -25.622086169779458,
            -8.70321610006824,
            -0.8243395056296262,
            0.7004447496244832,
            0.9082330731495061,
            0.042991934677000215,
            -5.573825289144449,
            -18.772937767052227,
            -31.81024878089197,
            -37.49239692641187,
            -46.9690861617487,
            -58.825789359684116,
            -57.993711881903685,
            -44.04220646882163,
            -21.618027776131417,
            -6.207877509950705,
            -0.7354232341355511,
            0.9380579697366555,
            0.9898787131254997,
            -0.16268351879973617,
            -5.44225092258399,
            -19.69166903710716,
            -36.50492570602832,
            -50.471889985309005,
            -60.33667317474599,
            -65.15374207862763,
            -55.721368402872294,
            -33.50890770754655,
            -13.326406645924937,
            -3.207539189622697,
            0.14599642187882417,
            0.4362646288194365,
            0.5306062504050635,
            0.20046196888675719,
            -1.5953075687778713,
            -11.22224605405607,
            -28.666828254596407,
            -47.1142731610453,
            -54.98012869985612,
            -50.73348337010608,
            -32.811516551520945,
            -13.7897007054269,
            -3.7186952510942937,
            -0.7094909702233302,
            0.037676463326028156,
            0.0743377499055074,
            0.9252937818690956,
            0.19073818454370323,
            0.5878536278378325,
            -1.3082482104691169,
            -6.14323977075883,
            -12.96531485952115,
            -15.779812252538097,
            -13.94363429218808,
            -8.208228950774709,
            -2.7495119707363154,
            -0.7306509086317599,
            0.45219695270606447,
            0.22084001792664573,
            0.4407340841355569,
            0.5954928215853006,
            0.4489081773328672,
            0.6383365934274264,
            0.21699368828529586,
            -0.1436516029172316,
            -0.5443290996024117,
            -0.48303935873030757,
            -0.5639066518403876,
            -0.06233369667722028,
            -0.31648043817830984,
            0.6338277064876775,
            0.533594785844565,
            0.028923764826081895,
            0.880657939495195
        ],
        [
            0.8932553014180914,
            0.1797608651788404,
            0.5282714713166534,
            0.7377673421367636,
            0.602414261495833,
            0.046126228252559055,
            0.8314480886106708,
            0.6850993393763641,
            0.7509948649684616,
            0.7663994710767882,
            0.4068055147575986,
            0.9903729343643513,
            0.4419498754984365,
            0.950758465868644,
            0.1275961308127961,
            0.9895166786942178,
            0.8782505463711558,
            0.18373622132361994,
            -0.5677721045253509,
            -2.2568029925929705,
            -3.82766191883633,
            -4.189552179536177,
            -2.9963909902698145,
            -1.666774664691213,
            0.004343097717267417,
            0.46156769311104856,
            0.2899864534908336,
            0.9602705571834219,
            0.42380796460016457,
            0.3772848936348487,
            0.4356268728394959,
            -1.692919263229796,
            -7.390238647653337,
            -18.108081780789686,
            -31.770980980786575,
            -41.102055363443974,
            -37.33453743212668,
            -23.327089762666095,
            -10.580369627831947,
            -3.0326964915459538,
            -0.4502782040269534,
            0.10758328889863894,
            0.5444475337248272,
            0.7193555965792163,
            -0.8467544563692142,
            -7.838682201056247,
            -23.721501288232346,
            -47.397861009903274,
            -67.38317038687892,
            -79.14096782179205,
            -74.35532754425442,
            -56.96485602529923,
            -30.133016020979532,
            -10.361631546429848,
            -2.415776583498421,
            0.4617468478781208,
            0.5046354317804927,
            -0.17102964712674978,
            -3.1060753375655845,
            -13.764160527127135,
            -41.11138528870618,
            -66.9972383583892,
            -70.0416013857823,
            -69.79660641042213,
            -72.21313071222369,
            -66.05118279855444,
            -36.300445788122346,
            -11.996388566741377,
            -2.588081576548344,
            0.5527195755055219,
            0.8976906351170222,
            -0.2738996135620278,
            -3.069191430441868,
            -17.09596648266535,
            -49.65221494351746,
            -62.99437872201212,
            -48.26924558315503,
            -51.51915055784096,
            -62.681890411388366,
            -61.724933627981905,
            -32.51735886820989,
            -10.34527954833751,
            -0.5478073805722099,
            0.16797291716086726,
            0.4312274184074753,
            0.5099764550864783,
            -3.252895468275881,
            -21.6361005582805,
            -52.90639589160869,
            -56.47152318860985,
            -49.13177518430348,
            -66.16476929093514,
            -74.59702364434601,
            -58.05685165574761,
            -29.583145059365243,
            -11.06962294925675,
            -1.5926248879611937,
            0.9394558752779268,
            0.2272604668057399,
            0.4620966010844838,
            -3.722675067539748,
            -24.20395251101778,
            -51.0070810779357,
            -55.52196290651593,
            -67.79338269291205,
            -85.94463977736149,
            -80.68356880434489,
            -56.32004071637335,
            -30.322546642557874,
            -12.266399542458268,
            -1.3112411787445426,
            0.5153770664588538,
            0.4339636230846267,
            -0.052352799065937344,
            -4.543345347558301,
            -24.035037835392234,
            -43.25226776224059,
            -49.516258340043336,
            -63.86850981136055,
            -78.68040493960801,
            -72.5146837623389,
            -55.475290848231424,
            -31.965599957311333,
            -11.117539730106257,
            -1.3727764367638549,
            0.9518827489381884,
            0.5666876501262977,
            0.1676106917400158,
            -7.181285701563122,
            -23.341435849471562,
            -38.48751359630689,
            -47.306186787368496,
            -58.43701207922272,
            -72.7555195931405,
            -72.22105567053633,
            -54.922371880744436,
            -27.344765753760136,
            -7.600417880846387,
            -1.0487257289073761,
            0.31911648099807455,
            0.9537285323368037,
            0.21695869907254,
            -7.15656588024165,
            -24.26977937322473,
            -44.149583324998986,
            -61.77704455419402,
            -74.31705383471447,
            -82.35130560628164,
            -69.30169236799732,
            -40.529826320408844,
            -15.604255736055123,
            -3.8472318651546007,
            -0.041288674950832535,
            0.8562826219838302,
            0.2963276865935181,
            0.7472851673619748,
            -2.1160507119906002,
            -14.257970312877857,
            -34.94872308417097,
            -57.03904689467301,
            -68.29489549160579,
            -63.654433652994946,
            -39.689534030308785,
            -17.2325744012279,
            -4.623772152072525,
            -1.046711965927389,
            0.5679576908009747,
            0.8131966160603844,
            0.0702370838779805,
            0.1662161378832466,
            0.29083054862434077,
            -1.8882740412861827,
            -7.424819698831507,
            -16.364359580351543,
            -19.712874124828154,
            -17.846900868449065,
            -10.396350726756724,
            -3.182835397383602,
            -0.29361013410553455,
            0.06971210052338522,
            0.11889659009160354,
            0.1806318934880551,
            0.8488987724708179,
            0.7734114645374365,
            0.6267274059305736,
            0.02825342601439281,
            -0.27862182041786776,
            -0.8567101763015681,
            -1.4359807533899873,
            -1.0481377896865116,
            0.03985517339033529,
            0.48157113577717,
            0.5262182499575505,
            0.900015918920851,
            0.7795589811700518,
            0.030605043187456403
        ],
        [
            0.9642159628859641,
            0.8609076255891774,
            0.597913388544147,
            0.22228773872627894,
            0.4847726182103153,
            0.17242479039263386,
            0.18396294889059728,
            0.15164914418819592,
            0.8996231585427544,
            0.4077600475590119,
            0.32329690199181893,
            0.3970293869447009,
            0.7855305112801666,
            0.5847745636610527,
            0.28788321225465624,
            0.9378098193055762,
            0.9472488074926179,
            0.6095363488685208,
            0.6951614072365973,
            0.32681050038855414,
            -0.7077646500478924,
            -1.5703682224165862,
            -0.4614857670078078,
            -0.3953230656353474,
            -0.037847662302855974,
            0.10637184381264084,
            0.762170957766061,
            0.5036345596793577,
            0.8171075460181656,
            0.7732039851220845,
            0.5723415734855316,
            0.2695002136151885,
            -2.495449523715166,
            -5.780928452337976,
            -11.021695071515532,
            -12.901871189181774,
            -11.166478798107757,
            -6.181136949440727,
            -3.202881127697237,
            -0.8983828516238412,
            0.608843829946204,
            0.44752696718242296,
            0.09134922099621891,
            0.7623961703185665,
            0.011125860265000728,
            -2.104881987356756,
            -7.573607222407518,
            -14.8334192627321,
            -20.848678617906277,
            -24.830194386137933,
            -23.400695701341622,
            -17.42654511157347,
            -8.548447971067606,
            -2.3847943517642562,
            -0.885636565615133,
            0.2742112665709986,
            0.34463141242611633,
            -0.08077632381772223,
            -0.5836278554802795,
            -3.9777552570944033,
            -12.86515555859453,
            -20.939095488326988,
            -22.19094995446614,
            -23.302231834411725,
            -23.470883332241925,
            -21.294270541056363,
            -11.588320303410471,
            -2.8191421570262754,
            -0.24118781716482213,
            0.20295491992568368,
            0.5879304611818296,
            0.13842473875676192,
            -0.3448607529984418,
            -5.376766563052079,
            -14.680395338327266,
            -19.148991124345994,
            -15.54954820042895,
            -17.292267802139076,
            -20.183022256125437,
            -19.527831548563032,
            -10.174910505143034,
            -3.2973466684307873,
            0.3424935799594291,
            0.7457498803774186,
            0.49738955350917197,
            0.0966122013866447,
            -0.9192327582044952,
            -6.054485594850545,
            -16.114973883351833,
            -17.08617233342043,
            -15.44939949192806,
            -20.559262157051037,
            -23.46795127088386,
            -17.96470074252346,
            -9.233949452404875,
            -3.027951405080277,
            0.071807950114775,
            -0.009761549884281608,
            0.5493361377875033,
            0.17562278117395602,
            -0.5465657228956858,
            -7.123240220773181,
            -15.85687808745941,
            -17.590634467077454,
            -21.067838371480427,
            -27.538010540008393,
            -24.469042362437516,
            -17.117228040841866,
            -9.575552439219278,
            -3.6607746974240283,
            -0.6190599804577368,
            0.5502909961222672,
            0.5486865472589229,
            0.05740341099221975,
            -1.16520332949311,
            -6.6081573597921786,
            -13.779830404131486,
            -14.851336670287601,
            -20.412830649303025,
            -25.607301260072635,
            -22.861868979435723,
            -17.018655541076857,
            -10.165829607884918,
            -3.3407333333525475,
            -0.08630403695275937,
            0.8714191677607591,
            0.1078225999656832,
            0.2968123326555561,
            -1.6600332542486667,
            -7.060078924930711,
            -12.240705043138174,
            -14.873416815687929,
            -19.071245774292255,
            -24.017797530871494,
            -22.094152654796623,
            -16.83884570130161,
            -8.693535362980187,
            -1.5850116973967763,
            -0.19483972746789566,
            0.4814719997433895,
