{
    "hidden_layer_weights": [
        [
            -0.3887709330428659,
            -0.034020009805778,
            -0.3117850207395281,
            -0.2231285743782907,
            -0.07903745827530391,
            -0.3041459688886438,
            -0.7409348377771857,
            -0.13171357808550846,
            -0.7403974789544024,
            0.44469088411483415,
            0.9189745811072815,
            -1.0182919504003485,
            0.6670563976621331,
            -0.10231885535662331,
            0.15825707115781903,
            0.319096565202881,
            -0.2654228733490437,
            -0.25480234124655143,
            -0.8356615518925173,
            -0.46458284967329444,
            -0.031059646927492798,
            -0.05994798771381891,
            -0.17794925900334474,
            -0.8804136777662682,
            0.5260423784082118,
            -0.17392449602832502,
            0.12142847944518378,
            -0.44374020205492365,
            -0.25571890460922225,
            0.3635979166041031,
            -0.11880882968923023,
            -1.0004494542649025,
            0.8441912209113662,
            -0.46508169664451837,
            -0.1560628117439231,
            0.0006985373477793773,
            -0.633173766387258,
            -0.9780117144806624,
            0.7883567779332921,
            0.40668066145938536,
            0.02388526607550639,
            -0.3449171479364802,
            0.7380370701493674,
            -0.7317456049318689,
            -0.5061043725255533,
            0.12204067142124156,
            0.3527335985144759,
            -0.5120901541822012,
            -0.7173323857993547,
            -0.022983583263680676,
            -0.4318927768129277,
            0.3805054065417619,
            0.7118714624343021,
            -0.570495914568097,
            0.5215060188955691,
            -0.7632422777432519,
            0.7065706944744533,
            -0.42035915087917797,
            0.08572995162280993,
            -0.55397504375245,
            -0.39927911971476915,
            -0.7756726088436035,
            0.8220962569319841,
            0.43150838769608674,
            0.3445789521463645,
            -0.5287104776248096,
            0.33766514803280223,
            0.4488955003415124,
            -0.893105684460155,
            0.6424933353314184,
            0.7367524878754336,
            0.23455203365996422,
            -0.22592843104749735,
            0.6556726670300708,
            -0.88641578097931,
            0.22395607340193316,
            0.7171982837969926,
            0.6330062444183573,
            -0.5122815235681414,
            -0.5376606651757617,
            -0.006548789942421213,
            0.4812961250918981,
            -1.0532383390269986,
            0.47215192859666133,
            0.8349998747442351,
            0.508592020429257,
            -0.5027489952640608,
            -0.152919776550514,
            -0.0673627250941975,
            -0.8964167862030293,
            0.6102475524305395,
            0.6303319606000806,
            -0.004673815018963106,
            -0.6959291842748259,
            0.07479550779736492,
            0.8433380360245014,
            -0.9420264415414987,
            0.10018141421432379,
            -0.15880694150311433,
            0.030605442378544734,
            -0.9443148585416844,
            0.003987763707976067,
            0.2061122563046905,
            -0.49659062225015316,
            -0.07221154185253856,
            -0.4645920928721921,
            0.8522297037141422,
            -0.7486151984575531,
            -0.05072073648576643,
            -1.0541966765665864,
            -0.6279738350844453,
            -0.05926969113218219,
            -0.012671365531802939,
            0.01820092965998672,
            -0.7906207875285908,
            0.36263800264179497,
            -0.31056735070670993,
            -0.7277720984952968,
            0.3080526748640195,
            -0.8423395827430095,
            0.91913864950219,
            -0.6140289509415382,
            0.9515617808595794,
            0.8907832441848504,
            0.6444120999388129,
            0.371008511559717,
            -0.4828313020386678,
            0.2709444365913485,
            0.25734828970717427,
            -0.413867488050262,
            0.4432577540925735,
            0.9920283646572025,
            -0.500746581788099,
            0.6278441756375445,
            0.9297303898226518,
            -0.28700090294223357,
            0.30284556611445873,
            -0.4709709317705668,
            0.40732419999359304,
            -1.0573044384368078,
            -0.9311013597912372,
            -0.6630666958391759,
            0.0177098285025934,
            -0.39247583936995645,
            -0.9362924609863512,
            -0.32764229473463014,
            0.781978302783988,
            0.45566912994580516,
            0.31570084113732555,
            0.8301352442140159,
            0.2661425221200996,
            0.6588060376447521,
            0.39106662379448837,
            0.5193655313050921,
            0.46455793735896456,
            -1.0384746700199468,
            0.8793515189253824,
            -0.6776184230144717,
            0.397857674401582,
            0.12902937187936409,
            -0.3280260078696147,
            0.05711340265890341,
            0.6540105995408908,
            0.8629166047283753,
            0.22934574073825031,
            -0.8072049090087623,
            -0.22883340687534473,
            0.628034464704107,
            -0.3356081659046451,
            -0.41638743933589856,
            0.04586734345976271,
            -0.641289785890803,
            0.19410557160107939,
            -0.7095533491314815,
            -0.8411849391852781,
            -0.3929170359827362,
            0.6826803069704225,
            -0.7676297178752547,
            0.3170915887215377,
            -0.2869934296088451,
            0.42224383674221216,
            -0.8802399804323211,
            -0.7722449237355055,
            -0.6755493284730003,
            -0.455720614907811,
            -0.9759407418307873,
            -0.7283638678824026,
            0.21343781254357264,
            0.3194486713654956,
            0.2755273271115293,
            0.34502533765291854,
            0.5335775572863952,
            -0.4267567992805828,
            0.35943757637454304,
            -0.10197040130263553,
            -0.7147052421258069
        ],
        [
            0.28228999305294195,
            0.23361459058994025,
            -0.310985850933372,
            0.36247556429450806,
            0.5832124323614591,
            -0.872547160307263,
            -0.8172710885466401,
            0.3710607784299829,
            0.4512796895879854,
            0.6985902287395589,
            -0.33068490412010204,
            0.054219723085709166,
            0.8565265721114436,
            -0.5472448815031651,
            0.6142607142712635,
            0.1295099356829119,
            0.5264524226548414,
            0.09943224042763128,
            -0.41174225674447085,
            -1.0203746689911564,
            -0.5253685986155912,
            -1.0392346542718984,
            -0.7063345129179791,
            -0.2272685068649769,
            0.7206595585365669,
            -0.14262336060561942,
            -0.16428726310214783,
            -1.024166864583837,
            0.17760634240430845,
            0.6696287933690582,
            -1.0280184511207846,
            0.7930272015428141,
            0.7973383617528182,
            -1.0015792768771772,
            0.5216384286921927,
            0.6989987400472101,
            -0.9184256492842188,
            -0.1706091298431583,
            -0.5363758631655267,
            -0.46780645382958447,
            0.17514111936500373,
            0.10903654699094667,
            0.20038677288870305,
            0.6710146691470146,
            0.8130573232036784,
            0.33321740442227554,
            -0.7902216085111966,
            0.829312576599749,
            -0.8206329171221654,
            0.6940923774435561,
            -0.5493690439479965,
            0.38344279036325,
            -0.843197188102911,
            0.49072981459824244,
            -0.08501523737524337,
            0.8198301297751894,
            0.8413975525413562,
            -0.4425992319280037,
            -0.9580776232438731,
            -0.9871956235255827,
            -0.5358057404513106,
            -0.42237416110048065,
            -0.027214713721404243,
            -0.11536057066863996,
            -0.6755456572119428,
            0.4657341020705994,
            -0.09677663006943855,
            0.7876270015458654,
            -1.089622223164725,
            -0.256780123008177,
            0.6441160161262894,
            -0.13533977338888836,
            -0.4229631811753972,
            -0.9565379504947246,
            0.8530167690648933,
            0.09109156929126011,
            -0.6965216940360986,
            -0.4707321096471079,
            0.6960945188666406,
            0.5657004044877508,
            0.8487142489566104,
            -0.3605451459794209,
            -0.6241473869976214,
            0.6531224810729311,
            0.239372511470357,
            -0.38257815177957205,
            -0.48184968759541696,
            0.16564794310006187,
            -0.07321716281344745,
            -0.5376425872135794,
            0.33805364827513434,
            -0.43311886585822834,
            0.7342105898902022,
            0.7875310233667978,
            -0.8764240377240365,
            -0.9401788125258632,
            0.5726735077127536,
            -0.6317527754561065,
            -0.7109746169593604,
            -0.5960656446008259,
            0.43956502704226696,
            0.4570332445440388,
            -0.3297882821999049,
            -0.09283422896776877,
            -0.029844516624136782,
            0.40498741700098584,
            0.22058841807650081,
            -0.34546920547570287,
            0.6507554080817018,
            0.8863669534848182,
            -0.7489773768995871,
            0.09405901730634911,
            -0.21537855144605156,
            -0.1680533150633611,
            0.6675240053839339,
            -0.3364837324543518,
            0.646861537624991,
            -0.6897012693309155,
            0.8626880347347655,
            0.7846962256522603,
            0.09523720322689877,
            -0.5162016870952794,
            0.5322824135357285,
            0.8504104857363588,
            0.5802115375823678,
            0.04878757872151613,
            0.08418869189841885,
            -0.15962600362365809,
            -0.3702285233319695,
            -0.22878296221755343,
            0.5159112247531469,
            0.721950330218674,
            0.8302235312944602,
            0.29998997410639394,
            0.7292136722866587,
            0.797109689032573,
            0.385837052324568,
            -0.5610147973418167,
            0.07768932995454585,
            -0.9310101419372575,
            -0.20246813748197343,
            0.25773763337112815,
            0.5409138370407485,
            -0.4073709627839909,
            -0.22663246510384377,
            0.8519159252862246,
            0.7761664071119132,
            -0.15350925499566667,
            0.34317376198664684,
            -0.1744667376969624,
            0.6444690524024491,
            -0.1786012370167426,
            0.6658273619720076,
            -0.9155040201245954,
            -0.9503390099515187,
            0.4153855782066182,
            -0.8216562191241622,
            -0.9602496471879008,
            -0.2288865417004378,
            0.5087660534808781,
            -0.969569102402539,
            -0.22475409488959833,
            0.8677485307071888,
            0.7170630984003923,
            -0.9955356359342332,
            -1.1191170028142223,
            -0.46574010561573675,
            -0.5658777959363184,
            -0.9413547122609166,
            -0.8970953363061689,
            -0.39345129256054023,
            -0.6270366963950174,
            0.8079049702047119,
            0.6623128588428531,
            -0.5803141821855222,
            -0.8009989966784146,
            -0.9978866535580339,
            -0.4369708727440468,
            0.5153424485391354,
            -0.5046138965398502,
            -0.2330272466129439,
            -0.2062770652221245,
            -0.8844693052668152,
            -1.0775979354617977,
            0.838635391022116,
            -0.4101235994529402,
            -1.0030001956685373,
            -0.28886794411620303,
            -0.0523916609768203,
            -1.0410946671940164,
            -0.18903865604837833,
            -0.6327244637604202,
            0.18623518772503783,
            0.5499136630124281,
            -0.03752559318287078,
            0.41176148953547015
        ],
        [
            -0.6937995938468049,
            -0.11493418872938867,
            -0.4862316596130949,
            0.19158560478248396,
            -0.8582438115485852,
            -0.08234268732570718,
            -0.8720754982393075,
            -0.5887047162009116,
            -0.6093879949953621,
            -0.19970911733885377,
            0.491700262664413,
            -0.8735443564578913,
            -0.5618805014777402,
            0.26342636405208064,
            -0.43686575057732957,
            0.06976482082084498,
            -1.0473511996741178,
            -0.07093837635921466,
            0.7630795121933122,
            0.3341568322547567,
            -0.6392316294321125,
            0.3870879464239549,
            0.3614111216985707,
            -0.44786663495148027,
            -0.7967356226003449,
            -0.13748411566748758,
            0.6945218396415648,
            0.46134212161640475,
            0.036494271004840456,
            -0.2066586082231535,
            -0.7603835485990296,
            0.830256080053077,
            -0.27493102918084594,
            0.3089278396914274,
            -0.8128888572699986,
            0.22283543740485937,
            -0.7139304764756563,
            0.32745382404720125,
            -0.6399188632131445,
            0.4933448766746426,
            0.5467232290126641,
            -0.7270814353529352,
            -0.004930221458184274,
            0.4341451498225355,
            0.49693803514996837,
            1.1395079817079365,
            0.9533614598311182,
            0.04818339422742462,
            0.003962314786011307,
            -0.6077676816123767,
            -0.6046338917699771,
            -0.94072633985729,
            -0.26283341912164004,
            1.3272425217223054,
            1.1068029669633452,
            -0.889414261516669,
            -0.4943773579892317,
            -0.80194785088226,
            -0.8732729006002967,
            0.20425294285286325,
            0.8505446953735923,
            0.23794172678696865,
            -0.22269038307787622,
            -0.12048214486494357,
            -2.0371227002823606,
            -0.7703695445098002,
            -0.05001543975918306,
            -0.11323848451560055,
            -0.3423954228493998,
            -0.37377163550975356,
            -0.5956344510334598,
            0.5565168733309113,
            0.5188226488798329,
            0.6045036977583661,
            0.023530474906459264,
            0.6072393369676597,
            -0.626232879808724,
            1.6146747077997115,
            1.5583507939882573,
            -0.4346014330126546,
            -1.3655868881310953,
            -1.151422306692114,
            -0.4407905188848748,
            -0.05681326425502281,
            0.670578302314414,
            -0.3979750535533487,
            0.26684617396576005,
            -0.9696055353656462,
            -0.01491800114567318,
            -0.03416953477260579,
            0.8747616672087232,
            2.382272189251783,
            1.5711813396117011,
            -0.6956620009340746,
            -0.8312093914243022,
            -1.7884539919665234,
            -0.24120422986937606,
            -0.6331242628910041,
            0.091752870569674,
            -0.6156919128072207,
            -1.507180156703298,
            -0.8300296355159831,
            -1.397504509945231,
            -1.1019417083700334,
            1.9229621444312686,
            2.2835206898941345,
            0.8815397650448846,
            -0.48861576845048177,
            -0.0037204108119429716,
            -0.6276246980403288,
            0.08189407549080921,
            -0.998907510697045,
            0.5228034139158146,
            0.28084730501975536,
            -0.19298620503305042,
            -1.5809184331877388,
            -0.472470868624003,
            -0.07274611073221525,
            2.5080829818925663,
            2.707638440446546,
            0.4465903175939314,
            -0.006770067726204641,
            -0.3017056936517864,
            -0.33302093523725823,
            -0.749069086300304,
            0.4677870693481471,
            -0.21797163570130895,
            -0.35095503458729127,
            -0.14233436856289014,
            0.787803838140073,
            -0.7613373594056458,
            -0.8626530375526416,
            1.4291967990755858,
            0.261628406104198,
            -0.544920957089621,
            -0.1489284195346328,
            0.6714339010051733,
            -0.037498701088407076,
            0.630946396734129,
            0.298252248191128,
            0.7817840732695716,
            0.660213441867461,
            0.04443628992337838,
            -0.4762638668930459,
            0.41956456086833194,
            0.08005558895862741,
            -1.0115775854109228,
            -0.1000855641177637,
            1.6454808552854585,
            0.45811827528480314,
            0.5775886556044336,
            -0.7563102103970829,
            -0.12661783376370608,
            0.294795706239351,
            0.14976925163476995,
            0.8071550574469144,
            0.9352968683187889,
            0.4895602112714758,
            0.16771965639410455,
            0.03247050474751704,
            -0.13651075454917458,
            -1.0823158190635995,
            -0.25557451427398725,
            1.275209727267894,
            -0.3782569555551573,
            0.9008070810417116,
            0.8689967721794418,
            -0.48020724506022794,
            -0.4207696219877859,
            -0.9509642666791323,
            -1.0432274938851407,
            0.05136251292158442,
            0.04381976077866858,
            0.9431411474483772,
            -0.443303490499678,
            -0.8269200414942637,
            -0.5307538846088447,
            -0.4136178826230233,
            0.9518602502664937,
            0.7119758772214982,
            0.646869424275987,
            -0.45309651581854216,
            0.32251362815149065,
            -0.18057896417327501,
            -0.09773347477853178,
            -0.16410255544548427,
            -1.0381554041278662,
            0.3113102500312682,
            -1.0999629745912745,
            0.688506912527388,
            0.12000254757426876,
            -0.5801071586419363,
            -1.0381006979994447,
            -0.9043112064867955,
            0.6614461222904604,
            0.30480656105840387
        ],
        [
            -0.8903290870937652,
            -0.7025112849097428,
            0.5423356155803704,
            0.8688688886481948,
            -0.06427869829925889,
            0.2563570006604632,
            -0.09954344971211213,
            -0.3867543454346628,
            -0.7095609243610109,
            -0.6530150016058245,
            0.9738539992012254,
            -0.011968305548542937,
            -0.5737728864623854,
            -0.5037820261190492,
            -0.30850386145375824,
            0.9772674066214235,
            -0.004101260219138291,
            0.06792844216145986,
            0.459711114223366,
            -0.09856192693790912,
            -0.7897725346426274,
            0.4836235590806524,
            -0.2857773474536378,
            0.626786444551413,
            -0.858213060369764,
            0.9813786608451591,
            0.4786481686005062,
            1.0193216803169503,
            -0.6968412979979801,
            0.3216418624967543,
            0.6317709918014522,
            0.4215046731290381,
            -0.49868245239453657,
            0.9915774144624144,
            0.8431112120272457,
            -0.05836302902916641,
            1.2638337306202378,
            0.13331177332231525,
            0.5070889307128287,
            -0.3367186628455452,
            -0.26528938245762795,
            -0.7250854118539807,
            1.027983396046625,
            -0.8335285484600836,
            0.3993318320215446,
            0.773995434532028,
            -0.6083273082570986,
            0.9727314291345134,
            0.6926661441610412,
            0.6901887734431358,
            -0.07574044310816978,
            0.4686155887142615,
            0.16138263627007238,
            -0.10408557354310372,
            0.8703513356077486,
            0.9515505029669624,
            0.8666618428868433,
            -0.03215994310277384,
            0.5954709573462309,
            -0.28563277069515364,
            -0.5115142195689317,
            -0.04293206557602132,
            0.09813355320776891,
            -0.15450332348063223,
            -0.2921725039131394,
            0.13307892691868095,
            0.5168036313047665,
            -0.7275541917981457,
            -0.5884625312522672,
            -0.2282762841029269,
            0.9668893598083697,
            0.20239529992049002,
            -0.5184079190206226,
            0.39154524913233923,
            0.8213287474305091,
            0.6375838823962844,
            0.19174075460921636,
            -0.7784733838889418,
            -0.0680547098055129,
            -0.7470057257299538,
            -0.9973381222869062,
            0.08275273262830937,
            0.8071306231191485,
            -0.18360043202081058,
            0.8894117233031199,
            0.08532893227273147,
            0.12874479314073684,
            -1.0687496478386251,
            -0.2755874935212642,
            -1.0886729095497372,
            -1.1295979134031164,
            -0.022585572248126008,
            -0.8142160232865157,
            -0.9296287155047882,
            -0.1807101926479926,
            0.3794205238423537,
            0.45842563426793576,
            -0.8175648508260761,
            -0.28987828955361533,
            -0.6149822934468835,
            0.13305277623816325,
            -0.6951266129594172,
            -0.7161263723954236,
            -0.0994831830185332,
            0.7165232495032817,
            -0.0772575068317412,
            -1.2445779305429687,
            -0.14327398102654024,
            0.22974758839161347,
            -0.20151497626050788,
            0.31800525086495185,
            -0.5884576818854316,
            0.3365337484549031,
            -0.6072119189569463,
            0.6696269050099736,
            0.15423911628022935,
            0.7158388861967019,
            -0.45289044123509625,
            0.5536769367077866,
            -1.31278173186346,
            -1.1494841191432088,
            -0.7714865703341054,
            -0.27717553840223685,
            -0.8797566424156774,
            0.6112727000320132,
            -0.5856696334181011,
            -0.5407357113063649,
            0.43981776094490405,
            0.9446882931120635,
            -0.624904263194999,
            0.3622270855191816,
            0.2586285634158703,
            0.3311180603986448,
            0.12624665364869617,
            0.035688284830216944,
            -0.7460788468597791,
            0.2024796752901373,
            0.7055356882204289,
            -0.8083531540828746,
            0.6455776431261252,
            1.0147196879254954,
            0.39714214759497285,
            0.4777494321699549,
            -0.06859094526930715,
            0.7871553020547143,
            0.0991076841410931,
            0.7182152365857587,
            -0.23920666844976612,
            -0.11103019053592088,
            1.284737350602674,
            0.6125536281294064,
            -0.7233564412982928,
            -0.4799637504052712,
            0.031704806344273764,
            0.6633915626054498,
            -0.7612546250723433,
            -0.7629157811577708,
            0.5343998836995182,
            0.6144586049384376,
            0.7916716497275875,
            -0.18186933728292792,
            -0.37864337807978127,
            0.6128112075173934,
            -0.40452399340136763,
            -0.2282701938364527,
            -0.8782952142069385,
            -0.5267131874465162,
            -0.05419878422308651,
            0.6934734707845576,
            0.7923878384831752,
            -0.42598240949600064,
            -0.05684444727124333,
            0.10810174416030431,
            -0.0182476938785335,
            0.3477945036401045,
            0.5176441803868251,
            0.7074777095468953,
            -0.2779802147235191,
            -0.3895288030757133,
            0.51638731512775,
            0.6451240254770468,
            0.5161198547345797,
            0.18071120177316186,
            -0.8964131317235269,
            0.46516173406563516,
            0.2660495760928811,
            0.8621934903820164,
            -0.7932387398359397,
            0.4114686421910899,
            -0.7478627652630402,
            -0.5953228005240055,
            0.6603690521843846,
            1.0178878505519815,
            -0.9411333790096365,
            0.950230861649399,
            -0.35112481299393045
        ],
        [
            0.21253531012598068,
            -0.1448458460161174,
            0.7063700690675608,
            -0.6391816262638478,
            -0.8871358631069264,
            -0.3637281053005035,
            0.5407592321446062,
            -0.9674788199725471,
            -0.9145968604744475,
            -1.1070118625255285,
            -0.22511741347719788,
            0.23203676671703602,
            0.8037667785419941,
            -0.8950344304139194,
            0.8100915272230164,
            -0.0518865158591316,
            -0.32503684105054326,
            -0.7260142431477101,
            0.3064236963764903,
            -0.13579551262788897,
            -0.04804302033688706,
            -0.5423370254782431,
            -0.03077056714292972,
            -0.4984752628812742,
            -0.9533997360719101,
            -1.0072945852083488,
            -0.2731828999831957,
            0.5122317762697923,
            -0.8414118114315166,
            0.7637486039958429,
            -0.051355191294542114,
            -0.9833793085849313,
            0.6207486672374493,
            0.033664229006916596,
            0.2247850214566599,
            -0.9492463150364898,
            -0.4638248683979328,
            -0.4660091118695897,
            -0.6888977549113517,
            -0.34712195084196357,
            -0.34530387904624715,
            0.22634399059276328,
            -0.08290760691019491,
            -0.8926983285945908,
            -1.0817300678833581,
            -0.9385923898030035,
            0.38234392758753455,
            0.10613251079027415,
            -0.03557744716411401,
            0.2402434045581101,
            -0.5341904138577227,
            -0.3637914750626121,
            -0.9753102964942831,
            -1.0709743641936227,
            0.5901958181661527,
            0.22614247461430698,
            0.6021312458176027,
            0.6391000580840056,
            -0.8359206865843904,
            -0.6161105170897888,
            0.6427737527540796,
            0.0834068246838276,
            -0.6055959332877949,
            0.6964351384000659,
            -0.3551835308431685,
            -0.2203725364738951,
            0.572685004320795,
            -0.05684114702582747,
            -0.45826692149618287,
            -0.7729252735066463,
            -0.18013606500315546,
            -0.9047780672574152,
            -0.23817492700434834,
            -0.555689549990729,
            -0.08346046817966618,
            -0.769595920901691,
            0.7562510594246122,
            0.40255232057888096,
            -0.5014641109580894,
            0.5566471410457806,
            0.61354806252319,
            0.708928732213079,
            0.4243363571105692,
            0.5722647575550422,
            0.42173904227901005,
            0.7027024065385249,
            0.48234206783142536,
            0.7055841739842886,
            -0.07110905207584439,
            0.9090450948453819,
            -0.08636049375433363,
            0.1813478097557781,
            0.619753705095347,
            -0.7288380661533701,
            -1.0322581256123715,
            0.022582203212326554,
            -1.1019632873763,
            -1.0654280749794276,
            -0.2773959895404352,
            0.8619683177607205,
            -0.1898893879558614,
            0.37475544910702857,
            0.7379320695889657,
            0.447798870214169,
            -0.6396473645001373,
            -0.1597838293769623,
            0.010852628022679372,
            0.05315716271485448,
            0.08088140217015048,
            0.10351830699632886,
            -0.9348031705439188,
            0.17262697417636236,
            -0.2480458832135746,
            0.8024939175470731,
            -0.5025571588664575,
            -0.6552014820814425,
            0.8932765761707884,
            0.08265856700524452,
            0.10672286438981536,
            0.3776510219903799,
            0.440349677557124,
            0.92734663236555,
            0.6157622746736736,
            0.8009192245100655,
            -0.17380637665373716,
            -1.0636907859217255,
            -0.22559934225457476,
            -1.0546393034455313,
            -0.33660468516885195,
            0.7986781600864641,
            0.19017261412997302,
            -1.0965504780797117,
            0.045218519006735056,
            -0.9038881265953301,
            -0.33385024473146824,
            0.9027760963111,
            -0.1372360446707938,
            0.4039037815233777,
            -0.638779596035476,
            -0.44251316866185325,
            -0.253820538984888,
            0.023571875004121588,
            -0.9517401154063815,
            -0.29566168714393226,
            -0.27228897040477107,
            0.36386445265225226,
            0.6461433503293671,
            -0.3823203931349295,
            0.4818169525053234,
            -0.6596677173313089,
            -0.20126323458457046,
            -0.7011962183060569,
            0.8071114218655142,
            0.14928613420347622,
            -0.8146927229684313,
            0.6453485719067709,
            0.24723077692986714,
            0.5487284815806421,
            0.19033193003862484,
            0.8784946637130426,
            0.8025924324005714,
            -0.621254050224589,
            -0.3525144513398707,
            0.6720053363248665,
            0.4744463470187064,
            0.23741190007067273,
            0.2573942129911178,
            -0.9969874027617394,
            -0.9218436625227812,
            -0.5772844891394174,
            0.6666203982380741,
            0.4120056869836218,
            0.8826943613651899,
            0.6520230788068603,
            0.19719385726658237,
            -0.31278962101267577,
            -0.534964804100214,
            -1.06437338142979,
            -0.7815358876507411,
            0.12669036417708965,
            0.4140202297856105,
            0.6482469302702555,
            0.1560739864657247,
            -0.32501523957874046,
            0.7395723632296384,
            -0.04106086931316955,
            0.6739805118126195,
            0.1734802286792869,
            0.5132268586882339,
            0.8325705081008576,
            -0.7033346191300949,
            0.18531942830121573,
            -0.3131668704009473,
            -0.18206638805601047,
            0.2910929526974548,
            0.3402736441209072
        ],
        [
            -0.8833510296472906,
            -0.44384046824916,
            0.34234672087536244,
            0.6886430949416418,
            1.0307762380778376,
            0.0937268878054574,
            -0.2589084468769592,
            0.5849007682468997,
            0.24582675274913865,
            0.4163651428579873,
            -0.5181652549370657,
            -0.019819518116599367,
            -0.42297239353147764,
            0.70222577228984,
            0.37084045438084556,
            -0.43018925240574946,
            -0.29894432325936615,
            -0.496973681477638,
            0.3461060439381503,
            0.48851256876121657,
            -0.7459651981615625,
            -0.08530684252364187,
            -0.4763803671323082,
            -0.5071731296029863,
            -0.7537662817512555,
            0.42327387338962796,
            0.14578736583804144,
            -0.419220722992174,
            0.66792422017767,
            0.24544252644933087,
            -0.41066039827189726,
            -0.12320946470488318,
            0.7972825846842839,
            -0.3903596052298488,
            -0.9930245335213216,
            -0.17690282207651423,
            0.20850031028202343,
            -0.48992263023236404,
            -0.661945941711982,
            -0.2572423394962523,
            0.3553834120551046,
            0.3372843311473741,
            0.026600551791849465,
            0.6338585847258004,
            0.5691398826877766,
            -0.8249008217658951,
            0.9085083197020316,
            0.08621566649844652,
            0.8521819014910598,
            0.4943378162160536,
            -0.0021939005251341167,
            0.8983227777715906,
            0.555409886014925,
            -0.6733908791238927,
            0.1301946894409035,
            0.755106102028536,
            0.6246850611533453,
            0.6788995585693848,
            -0.2529785269057911,
            0.5407565492798974,
            -0.3317772454833561,
            -0.26538562193142873,
            0.7384614063491737,
            -1.0049507705423932,
            -0.38020522347322,
            0.023066601479547838,
            0.007544010985462041,
            -0.48147585015772415,
            0.13872923063499173,
            0.44801392025922276,
            0.011421946468961755,
            -0.5122088101633748,
            0.44296720111863164,
            -0.5619692226074998,
            0.1596715497048756,
            -0.3427196490891014,
            -0.6829625560246363,
            -0.022541506420668267,
            -0.18365650331149497,
            -0.32946725257656656,
            -0.462656594140593,
            0.9346766212616616,
            0.9329987178531653,
            0.24812207272648817,
            -0.1375994339010038,
            -0.7844632413290175,
            -0.10687011115339395,
            0.6784430837296699,
            -0.46104048514765134,
            -0.8582071146074601,
            0.6322852475420315,
            0.7467986484431449,
            0.12005316986904661,
            -0.08996736227001191,
            0.862853085153999,
            0.4626610217014309,
            -0.8856425750387121,
            -0.06210853183418566,
            -0.6638229893343275,
            0.6803355752519732,
            0.4039708705336265,
            0.043932785128190995,
            0.9291290883638512,
            0.633797189362971,
            0.4843172661099883,
            -0.04580148116815237,
            0.5405675810139656,
            0.5923360286278313,
            -0.6337726951965346,
            -0.5768959539524838,
            0.5041057137405989,
            -0.9564627151747398,
            0.4880358897377654,
            1.023135005755283,
            0.7201220755339258,
            0.9895483822503565,
            -0.49086543754353246,
            0.57223522780269,
            -0.1167471852763793,
            -0.07961871930711693,
            0.04284971344917964,
            -0.22164641497350676,
            -0.27380854282349737,
            0.3792994565650404,
            -0.14828323391925655,
            0.09163140967010446,
            0.9877558208431207,
            -0.6641552377667747,
            -0.05096002003665055,
            -0.9556862273019382,
            -0.036144943633742155,
            0.4636891021810836,
            0.2806853394950529,
            0.7436085793070384,
            -0.12016689492908603,
            -0.05345705403880639,
            -0.07451495507778139,
            0.947917364197802,
            0.8303943145669302,
            -0.04990478102284521,
            0.12255473392019747,
            0.4373255092782799,
            -0.7136634507086856,
            0.38529009449987733,
            -1.0096814726246157,
            -0.13824223881868872,
            -0.1376430795095956,
            -0.09347071694205307,
            0.23529961184253378,
            0.4555740962084611,
            -0.2817845218679759,
            0.9002485164798866,
            0.33433357873489067,
            -0.5243543580361077,
            0.23320504812963203,
            -0.6610954223532642,
            0.9733688517572697,
            -0.38666179519207894,
            -0.13434240695876054,
            0.9087713668351012,
            0.14281341860338076,
            0.687098064342117,
            -0.3202765883755566,
            0.852432651697843,
            -0.18788487804725895,
            -0.6773787167272701,
            0.028768219306734264,
            0.0101709353265222,
            -0.9335013984455529,
            -0.5833142259266377,
            0.6181706359677133,
            0.8675393447957684,
            -0.6531849460395269,
            0.27508736406395323,
            0.0019230534091209217,
            0.20471264615956408,
            -0.6049401414382527,
            0.8971226313763068,
            -0.10251521007766229,
            0.09546621169679602,
            0.26265565429082965,
            -0.4475574298311482,
            0.02793665124506753,
            -0.3413772060946938,
            0.9591242237390365,
            0.9781847992098098,
            0.3968685689618087,
            -0.11150887911531761,
            0.3525645734387706,
            0.5560271934770297,
            0.027505345952871404,
            0.4701274347342943,
            0.45060654296068153,
            0.27362806759662117,
            0.9992237885823638,
            -0.933589228685991
        ],
        [
            0.20030239938309533,
            -0.18121410300994115,
            0.5970139890774935,
            -0.7791381859745224,
            -0.6292407053371735,
            -0.29239275063267584,
            -0.38286987248481014,
            0.8272951436479952,
            0.5289301581690466,
            0.6045967473583114,
            -0.5109813132868575,
            0.23829821755846986,
            0.8613401586295714,
            0.04620627235187877,
            -0.597477622034886,
            -0.2547993135210147,
            -0.8267295949867812,
            0.8900371474006308,
            -0.7789426677605323,
            0.99427849705104,
            -0.21090880324127195,
            0.3479553897015004,
            0.2617874160498588,
            0.32427584519802716,
            0.6307468887361665,
            -0.6968711116074444,
            -0.3722782988571301,
            -0.9622037903785686,
            -0.004525895925058236,
            0.9997667895270382,
            -0.25180923460177895,
            0.5538291267050756,
            1.2225245033842307,
            1.0656661384682868,
            0.5560753746918328,
            0.006745746312940419,
            -0.16451189676056854,
            -0.8123340216586383,
            0.20622955000773646,
            -0.792844547877081,
            0.44728791593995987,
            0.24442407012402007,
            -0.08177920634161638,
            0.01882355032314456,
            0.5779664623490071,
            -0.516760480380934,
            -0.5711581711868408,
            -0.2854467427292273,
            0.920646747611828,
            1.35808733817401,
            1.419762505227038,
            0.7273049809221303,
            0.30249432046281616,
            -0.7234798610549096,
            0.8838847466373354,
            0.7926077102385812,
            0.039381685707245984,
            0.9923920071860319,
            -0.27881894090307086,
            -0.051518106410622405,
            0.19756828716443744,
            -0.2924485106396654,
            -0.508148874747511,
            -0.8713762543718283,
            -0.6578821844494205,
            -0.045379447367310644,
            -0.20217285837718654,
            0.25037323050857646,
            -0.3254127271469048,
            0.7987601762604537,
            -0.1611054185179849,
            0.04779562039001913,
            -0.05315743000968687,
            0.18322678389013503,
            -0.9020777476223882,
            -1.385054607569369,
            -1.265017789488598,
            -1.1282990163531168,
            0.3875705262086225,
            0.6172403160539042,
            -0.0725356380182672,
            -0.708551121393336,
            -0.5411927281524412,
            0.3680077538018706,
            0.6538885757439643,
            -0.0021177814085473687,
            -0.7572085560927463,
            -0.6559694278093021,
            -1.3311317480505789,
            -1.1950236837413277,
            -0.7844630602927171,
            -1.440730548564841,
            -0.40633093855493146,
            -0.5737817156565312,
            0.23536685048282663,
            0.14995828777364237,
            0.015828557834050443,
            -0.48109881834178564,
            0.03166475121841786,
            0.6284122964526552,
            0.4505375891950606,
            0.07508275352161335,
            -0.7106161876972583,
            -0.36091381851410403,
            -0.6181695122062201,
            0.158549458889304,
            -0.2604488756449554,
            0.2523457856651164,
            0.16241876645133918,
            -0.49795880380103436,
            -0.5635270005737815,
            0.5089660273273394,
            -0.1416732746009727,
            0.4213237839293038,
            0.5280684592435186,
            -0.6555793373039837,
            -0.03388527254193819,
            0.9224625413857506,
            0.7700195176078977,
            1.4999082608076983,
            0.013424314153820735,
            0.5621848210967646,
            0.43446539393747474,
            0.8245219306872756,
            -0.5340140771725708,
            0.6442780554866204,
            0.7658344286837052,
            -0.63771356959101,
            0.6164913676680515,
            -0.38092644725722236,
            -0.3186372142337863,
            0.03846725975960129,
            -0.16708161697411889,
            0.7752173168049661,
            -0.42088426719512345,
            0.5881568607346184,
            -0.374160102656864,
            0.7770052764741986,
            0.88976320695073,
            0.43534174205777115,
            0.6235668922145403,
            0.1862211238397923,
            -0.2361501316760859,
            0.6033541866644723,
            0.8642108877430489,
            0.1297878136656897,
            0.5544707994568373,
            -0.7698379600385798,
            -0.6194760351535094,
            -0.9187860906596578,
            0.15049541775815947,
            -0.642383093846673,
            -0.7411236768058299,
            -0.5922945692331147,
            0.5558585363017606,
            0.9452368176982047,
            -0.32309487599718933,
            -0.36806418264588764,
            -0.6414820793852667,
            -0.4579874436116869,
            -0.5828388954088558,
            0.8082267728354812,
            -0.743938166174148,
            0.64010389538093,
            0.6366078521556354,
            0.6041819122675369,
            0.9768693541433453,
            0.9885886342661552,
            -0.8725886500761094,
            -0.7956359413445374,
            -0.7743402185609707,
            0.08713438095452661,
            -0.8686534720660627,
            0.6665960663756444,
            -0.6764942900340265,
            0.6167131679148945,
            0.5104380938708889,
            0.37326066383004936,
            -0.5004080396517699,
            -0.4609208633585664,
            0.7249130827665702,
            0.36252719947406736,
            0.3967586415025655,
            -0.35377477160715903,
            -0.3151696866715793,
            0.12481034632016033,
            0.792101761987673,
            -0.941389324158644,
            -0.3163970825890868,
            -0.6255945333174574,
            -0.1703915157011014,
            -0.2331376180861531,
            0.5945264797503322,
            0.7689970092160684,
            0.6308260039098043,
            0.0027759167219497632
        ],
        [
            -0.7249966853045332,
            0.15961429254757833,
            0.4164332885411404,
            0.14600890829194474,
            0.8130626317582298,
            0.5000196960599712,
            0.7639476325513481,
            0.7987253504744227,
            -0.1665036626545158,
            -0.26989172329278516,
            0.43172083178077364,
            -0.8457976354362885,
            -0.22537008733542244,
            -0.890954391220418,
            0.6860485412397553,
            0.8574996022889972,
            -0.6549618888939692,
            -0.24147227836877141,
            0.7917330951496401,
            -1.13091740355005,
            -0.6650723275975567,
            -0.12553942959573036,
            -0.4066480849184524,
            -1.230081723687606,
            0.8333566021097815,
            0.16861337993857942,
            0.809675565895783,
            -0.5793655468911899,
            0.6406365439091276,
            -0.9060984084808527,
            -0.21390306893741384,
            -0.4510884548929094,
            0.41286973268944355,
            -0.4626057120677991,
            0.12498028264290462,
            -0.5783827773165056,
            0.7316155268892429,
            -1.0378764974181498,
            -0.7748844147465815,
            0.11674535506283158,
            0.2987063487493946,
            0.26648834449527536,
            0.2349764094889021,
            -0.6289280471119081,
            -0.3388436808258746,
            0.586177169632734,
            -0.7899309191509558,
            -0.09035169393109344,
            0.5755230523186728,
            -0.9776858181232965,
            0.9010395018476701,
            -0.6352956217930014,
            -0.46836538874011063,
            -0.05201461488739483,
            -1.4143791545215538,
            -0.25549201644439495,
            -0.28416751690606395,
            0.4859392423652827,
            -0.6813823688443519,
            0.3047079325368529,
            -0.38785409884757116,
            0.6976302282264747,
            0.3850069530256176,
            0.46797140102005486,
            -0.5352535173363401,
            0.1893220146900562,
            -0.26120916097934305,
            -0.042554283258187206,
            -1.2208124459462653,
            -0.596926708250721,
            0.8207256677221872,
            0.33026039563134346,
            0.21742926058421191,
            0.07285985471411734,
            -0.3852069932634425,
            -0.008293700324650917,
            -0.2339977755686803,
            -0.47082234356978375,
            -0.5958353348855343,
            1.024085154418652,
            1.0392361286218126,
            -0.49774623188780653,
            0.3507376280875795,
            -0.27401487894086435,
            0.040890448102961795,
            -0.7361076674735929,
            0.5826518116980767,
            0.21833133905028101,
            0.5181358788614043,
            -0.00016674474499774516,
            -0.9553699660101161,
            -0.6717579628604351,
            -1.148572848270236,
            1.4421858097738964,
            0.007997902722779022,
            0.7133690973733505,
            0.056317759469016286,
            0.5902080064918072,
            0.4146866622209083,
            -0.05753095863563715,
            1.176438497015262,
            1.297766169240054,
            1.2616446963361325,
            -0.19978397117036337,
            -0.4666651929884087,
            -1.4589341111999259,
            0.7487200046281133,
            1.816956965828137,
            0.35188400649631285,
            0.9171222318631476,
            -0.18067457446715518,
            0.8418068610983288,
            0.22726181209426452,
            -0.8861098085080497,
            -0.04644796849894291,
            0.7118000897435814,
            0.40278082274439697,
            0.5185256565153084,
            0.0024532306842690605,
            -0.315547840464438,
            2.188826897335384,
            0.07037126523370181,
            1.1823937661855182,
            -0.19443301077610592,
            0.5447345359001509,
            -0.01922248522756968,
            -0.4871512993928326,
            -1.0083863697630018,
            0.5677052398414216,
            -0.012196144057377688,
            -0.29881071787750446,
            -0.9351902932080173,
            -0.3598305961397808,
            0.8392979340626355,
            0.7519856432743491,
            -0.2311318540340231,
            0.030196065300966912,
            0.7577699207382945,
            0.9759863923617716,
            0.6452677175503889,
            0.20135683207984914,
            -0.6370363249245964,
            0.7310271573051959,
            -0.5870438193887509,
            0.11993283612401631,
            -1.1806639755352675,
            -1.6212670984789879,
            -1.2177054983084257,
            0.17555781961910197,
            -0.8157127099652646,
            -1.608011301759772,
            -0.20919546574275524,
            -0.11736287062189797,
            0.7748673763749264,
            -0.8379914770797056,
            -0.371932460785034,
            -0.33190404032375725,
            -0.3981110773749277,
            0.8135988140439895,
            0.6675482668363356,
            -0.9182418269391641,
            -0.6018754585915501,
            -0.629537490914162,
            -1.0526228443370078,
            -0.2590738231282375,
            -0.12967591393514913,
            0.07385680596811126,
            -0.367415104006992,
            -0.8199884426341452,
            -0.7677232586289809,
            0.9516461391188086,
            0.3738181332520059,
            0.44718244726243406,
            -1.122797453600157,
            -0.7871232950344901,
            -1.2932688787270883,
            0.6496852160314734,
            0.3056696834687658,
            0.2994290441258965,
            0.714847331761916,
            0.8644893464669293,
            -0.6447347979283614,
            -0.1106038021778668,
            0.25833584787857194,
            0.09555055954995084,
            0.951076515760701,
            -0.6034392491040109,
            0.767766353098579,
            0.3560682115112809,
            0.8413856788548529,
            0.6302334367826457,
            0.7219002732359143,
            1.0403320115981178,
            0.6642428539112082,
            0.012593457592455634,
            -0.716536064655736
        ],
        [
            -0.12548223230927785,
            0.26916376925119095,
            -0.12294591853487935,
            -0.546307120123821,
            -0.48938648712900196,
            -0.5052543962468318,
            0.5027886609713824,
            -0.5692187144203494,
            -0.3645765119793188,
            -0.49027310164154836,
            0.700304666568089,
            -0.1273412714281708,
            -0.4922673085088129,
            0.7904972115606148,
            -0.3216674968050714,
            -0.29759252261035557,
            0.02486949844393562,
            -0.34253532394348624,
            -0.6863507610344711,
            0.5158319785133512,
            -0.7392030469364305,
            0.27288680768261325,
            0.3287883747226211,
            -0.9618396029947848,
            -0.0052290794368414365,
            0.6500263866439491,
            0.24969752068464268,
            0.7757038231828266,
            0.2773956039048946,
            -0.7835771375698444,
            0.6993371400010198,
            0.2187213764577926,
            -0.6560017832132968,
            -0.024971327737309014,
            -0.3733126313655616,
            -0.9019734245464148,
            -0.9292873140170668,
            0.6485907435099226,
            -0.15835324212184188,
            -0.9678905704732295,
            -0.07221614514405165,
            -0.9899035642479578,
            0.5552854051870165,
            -0.7576031450336,
            -0.4316308456477221,
            -0.026477183939188922,
            0.11328134440171857,
            0.2551990560957409,
            -0.16339201727847472,
            0.3211320555487605,
            0.704393813002763,
            0.8426120739611621,
            0.46020024930146863,
            0.7316107422412745,
            -0.6056951079638394,
            0.27218738092379197,
            0.4933202283956176,
            0.42176231484516297,
            0.5326699208579375,
            0.5463917167872111,
            -0.6311838789576518,
            0.5766142750749166,
            0.23071670220708007,
            -0.08342662805994741,
            0.16914192069958905,
            -0.19498209217623552,
            0.672331851058788,
            -0.19591543948797543,
            -0.7930456781076879,
            -0.9578252073631416,
            -0.35218957145704627,
            0.6296716717481865,
            -0.22159329849657147,
            -0.6549630044507826,
            -0.19703939686264618,
            -0.43669334909744656,
            0.6669584895475705,
            -0.9750882090271263,
            0.9301284192401154,
            -0.6811393795584231,
            -0.832176278023626,
            0.595468538502422,
            0.3180647197813631,
            0.24726071914433403,
            -1.027303841730038,
            -0.5999155860700189,
            -0.6472156319635155,
            0.42240995966802813,
            -0.8958012756765124,
            -0.7785783632961294,
            -0.09507070726039829,
            0.37727412021622,
            -0.10127615572322442,
            -1.0077596600982848,
            0.18088956604617526,
            0.09155294512661248,
            -0.3058256388193516,
            -0.29521417253567694,
            0.3008163044944809,
            0.305772067022116,
            -0.3850152360727214,
            0.5973185672709701,
            0.6075998880490784,
            -0.5795727361936348,
            -0.42132079684163887,
            0.9486045471435103,
            0.37454227080442404,
            0.8080160958997322,
            0.5358942472666626,
            -0.17811455580626087,
            0.2976111912601256,
            -0.306335895200812,
            0.739406323041347,
            -0.1580367752512709,
            -0.7877075638149112,
            -0.35670719367690734,
            -1.088228458917525,
            -0.1511022298848065,
            0.2298386666990596,
            0.5998453708910605,
            -0.4542107902177337,
            -0.25953213084332616,
            -0.2584139399303442,
            -1.2226578551687455,
            -0.39051271851494707,
            -0.20535918139981968,
            0.026802722136536148,
            0.4895343965969109,
            0.5202426601746515,
            -0.7178945340965995,
            0.11514501105885598,
            0.9074980090956526,
            -0.952275993731758,
            0.42900076443835594,
            0.35568725551814434,
            -0.550759549723689,
            0.5081229539632395,
            0.3385533436517452,
            0.8328225148221189,
            -0.44725128391989366,
            0.6223348075905951,
            -0.10374153737271369,
            -0.44744294731559187,
            -0.4679707719014521,
            0.14447455446723786,
            -0.2532118038616207,
            -0.7366495354571687,
            -0.35425765862456543,
            -0.7387686636488339,
            0.8013629500493187,
            0.69047351719752,
            -0.46181913030776134,
            -0.7577516556844267,
            0.6107227516062816,
            -0.8609065093170378,
            -0.33953921453526675,
            0.6624258879801175,
            0.6285197276978254,
            -0.11876624122188643,
            0.8023601026649747,
            0.451993370671871,
            -0.41194108134018914,
            0.47505633395392294,
            -0.4564258601152875,
            -0.5451820864892296,
            0.49158828198734456,
            -0.4246722486013026,
            0.3945619150565554,
            0.6771995038652765,
            0.03686107379099337,
            -0.354787757899413,
            0.6112959107499504,
            -0.7900642429653946,
            -0.08574678995890557,
            -0.2917181891924152,
            0.30567688594900033,
            -0.08514961849627223,
            0.08165856008435946,
            -0.4323930595654486,
            0.47820933587583037,
            -0.4297991956345965,
            -0.7997462597979506,
            -0.37025222104311867,
            -0.6617822066833484,
            0.1866858560682451,
            0.5813679177433061,
            -0.07565212887983341,
            -0.8081306465873,
            0.14442768777969225,
            0.4809393622622628,
            -0.15330445472677262,
            0.05669653416961753,
            0.00631769675134723,
            -0.5919891196825309,
            -0.04899613067932568,
            -1.025132467345188
        ],
        [
            -0.8882890949734266,
            0.06239736708538361,
            -0.07413527055263448,
            0.548677750847232,
            0.4909940423404958,
            -0.5123891195197001,
            -1.0770668475718772,
            -0.3371614083066262,
            -0.30393624907162664,
            -0.45545807454536874,
            -0.5985482958052586,
            -0.5098320171237105,
            -0.6252086613109955,
            -0.5294768266146479,
            0.2603643355340119,
            -0.621215763743789,
            0.7892610127691336,
            0.2049886987083994,
            -0.9391414333794583,
            0.7320789875871092,
            -0.9810747003068739,
            0.08669177264369013,
            0.04996796118890004,
            0.9213909097592868,
            0.6316746949052351,
            -0.5726101862576017,
            -0.5949799909670938,
            0.8223973998018067,
            -0.08008992227565893,
            0.6261041595619677,
            0.19115782606131254,
            0.06306384403321216,
            0.453265902486118,
            -0.42917892699615834,
            -0.24969495708951123,
            0.8954889612193452,
            -0.4183750017049286,
            0.42705826857849866,
            -0.7941274428015402,
            0.39407189869103015,
            0.7317729471065159,
            0.44993005694396854,
            -0.3040983076081217,
            -0.4665242186431565,
            -0.1659032625821462,
            -0.33517024995188344,
            -0.14131354622519385,
            0.7065651188786457,
            0.2972373027335397,
            0.028258465960213953,
            -0.46448797267041986,
            -0.29426579923255464,
            -1.052068534085434,
            0.05293935618568872,
            0.3311760909012519,
            -0.6049337055255766,
            0.5839865124613209,
            0.39138129542471695,
            0.7555638369126951,
            -0.790670025953146,
            0.1385673586612098,
            -0.7158585684870633,
            0.4402830287081799,
            0.750974549403753,
            0.5680402215929469,
            -1.0923653678699603,
            -0.11655644003715057,
            0.1854170720116603,
            -0.9071705279497727,
            -1.0316828583549142,
            -0.2670456458837027,
            -0.20626294349818647,
            0.747920235946859,
            -0.6857442877564992,
            -0.41727897362073785,
            0.512759759106118,
            -0.41071823831693505,
            -0.5009962053403689,
            0.4264436942963173,
            -1.0192085734336243,
            0.7381820766699567,
            0.18237691127653657,
            -0.3864616480065507,
            0.007716902972788039,
            -0.39103550947300914,
            -0.7871205757827737,
            -0.7166401188750281,
            -0.227388599608696,
            -0.758791451538481,
            1.1134270673449778,
            -0.48237879124368765,
            0.6639554823892116,
            0.8581569772750867,
            -0.03323170229449032,
            0.04995414285724576,
            -0.6485384903415989,
            -0.7133500484031705,
            0.43144026093305926,
            -0.06796067866314838,
            -0.9649912537066607,
            0.827993105819916,
            0.5423296250798607,
            -0.03270121528431394,
            0.8115572254745377,
            0.2960528640376882,
            -1.0420003948959582,
            -0.43834363684830674,
            0.8973696893905949,
            -0.016545850341167737,
            -0.41395050510422354,
            0.6451238729941831,
            -0.7553025602327487,
            -0.7240756691119364,
            -0.4109657321511935,
            -0.3735084170411785,
            0.775698243449057,
            0.473212659815174,
            -0.7570323500152034,
            0.6324162560103849,
            0.731248042666772,
            -0.9022509098410113,
            -0.459847945011569,
            -0.23789452608160538,
            -0.3750806487349414,
            0.8281146121615653,
            -0.43369197667279563,
            0.19673002532679265,
            -1.0723872050054803,
            -0.8188159816941923,
            -0.5355490116493069,
            0.8879033641844931,
            0.7428611843847225,
            0.5092596726117496,
            0.6370788811086863,
            -0.8189452749820821,
            0.18403601526741015,
            1.0192912618788752,
            0.8611831244597622,
            0.28459950761203756,
            -0.6968629498206418,
            -1.1638747427561211,
            -0.9640543485339429,
            0.7826039087193671,
            -1.0427711978632344,
            0.530883050508732,
            0.6814326536071423,
            0.727646348300475,
            0.29196185171742045,
            1.0326409699628396,
            -0.899680156254,
            -0.6792339063125141,
            -0.9442066135684387,
            -0.7964032225968248,
            -0.624635593992455,
            0.45934644859196494,
            -0.24002201258262248,
            -0.8701075570212502,
            0.24600885903098327,
            -0.676909594506448,
            0.7060586341950009,
            -0.8380270576999694,
            0.5792619664049611,
            -0.8248915485161358,
            -0.6032826215425455,
            -0.6472504671847401,
            0.29026715942649556,
            -0.4819151777322543,
            -0.05476637733960647,
            0.8090773388740311,
            0.33226750613221107,
            0.20846122883417476,
            -0.061130499116117135,
            -0.43245830613236774,
            0.10855422623742841,
            0.32619616825420794,
            0.2583164643093979,
            -0.7807734873099119,
            0.21292026849308107,
            0.03677772841220975,
            0.7826589545018248,
            0.3482227026494055,
            -0.8461696876617097,
            0.5462423394503417,
            -0.2859872490622895,
            0.39882017050904206,
            -1.0684998141837592,
            0.43374034249395116,
            0.0021004239951250272,
            0.6863506520473934,
            -0.0007705667641770976,
            0.005095899995719212,
            0.3540074435552223,
            0.7412413125845712,
            -1.0533940293801198,
            -1.079146584562615,
            0.23501271549508365
        ],
        [
            0.40452410914668613,
            -0.006181901518939915,
            -0.5190126744184517,
            -0.373323462326152,
            -1.029000340785355,
            0.5040416915058257,
            0.1676707324711337,
            -0.5272943695382062,
            -1.005810007949198,
            -0.10814611492458352,
            0.020067316178339605,
            0.7600287573518946,
            -1.0826901287941149,
            -1.0533605114182736,
            0.5375926789842383,
            0.3988625608770595,
            0.4401018000445729,
            -0.29283997696778574,
            0.7386857121940512,
            1.2177184326959545,
            1.4525390523091724,
            0.8851875559776073,
            0.8679955999133566,
            1.0421292832176379,
            -0.1312124823385978,
            -0.2366428688181474,
            0.7122055340084372,
            0.2925768152826138,
            0.3053097300438261,
            -0.2422728590446233,
            0.08547975097863046,
            -0.33335972284983734,
            1.4567365681629831,
            1.3129272346592435,
            0.576802411943374,
            0.7436677981914552,
            -0.04615792205914323,
            0.9900482587523143,
            0.33246598719303366,
            -0.2633556380433095,
            -0.8847134383529979,
            0.09413092598951478,
            -0.7554977804684718,
            -0.646613727108708,
            0.3762354999985483,
            0.2860203380245415,
            -0.11346271565002705,
            -0.7744442221371172,
            0.09138606085906938,
            -1.199808459387698,
            0.0852150385769127,
            -1.1376398348563774,
            0.001380351956767824,
            -0.3109835829720422,
            -1.2820143055752584,
            -0.03476862146967685,
            -0.3519100825748119,
            0.6385875544082995,
            -0.5190790112650624,
            -0.862820529984839,
            -0.7900168720452487,
            -1.3263772552476487,
            -1.0030015708707394,
            0.7401335732517429,
            0.43769986430781527,
            -1.0538322845398294,
            -1.1458454176783914,
            -0.5047024856416984,
            -0.16600826941098587,
            -0.8328309267882369,
            0.5301655460527791,
            -1.0936953765062292,
            -0.5776770681129565,
            -0.5521660862698397,
            -0.8489857903211295,
            -0.7768711447366419,
            -0.660108647088177,
            -1.7742576594870374,
            -0.33558008937482314,
            -0.6447595677581726,
            -0.24312683281358646,
            -0.5062674853198477,
            -0.6055588314817961,
            -0.3489984375099316,
            0.25031984458361245,
            0.19730701450995702,
            0.2256000667340517,
            -1.456968391958482,
            -1.0820547735386459,
            -1.1701300607790734,
            -1.9969204769045463,
            -2.190192842113861,
            -0.9032006263917798,
            -0.4315006062158542,
            -0.2860584613123541,
            0.6124888158959377,
            0.3185902779126669,
            -0.7606952962936381,
            0.3341058546176646,
            0.10040433484131306,
            0.8407489018453859,
            -0.5864658800832645,
            0.4908572874413365,
            1.152833660295197,
            -0.2741479475500958,
            -0.2476183202220418,
            -0.19516927575437454,
            -0.2682955479688519,
            -0.08468433620542466,
            -0.767379652996172,
            0.17735647385212638,
            0.28409255152664753,
            0.9047732739781736,
            0.41651747218827884,
            1.6146669346683034,
            1.3471708706574452,
            -0.5148751477815438,
            0.2592705184770766,
            -0.005685891347227752,
            -1.1856340420480496,
            -0.43414989434914636,
            0.3409809796303086,
            0.8403703216851423,
            1.4561959138643525,
            0.5604679567160882,
            -0.824512757063725,
            0.20409303075561835,
            0.2705687628395262,
            1.2891396123241372,
            0.9803300669114435,
            1.249643844472334,
            1.8427810758420955,
            0.19385102051332606,
            1.3113854545863397,
            1.2842297145683184,
            2.1574752856651296,
            -0.35031355001995723,
            1.804210259933981,
            1.5677040339641501,
            -0.5179462545415847,
            -0.21349012862575767,
            -0.5392040445268157,
            0.9329439217540431,
            0.40708318247863295,
            0.6135195834081378,
            1.1259985087124058,
            2.247809444941757,
            1.4805421100062692,
            1.7148959476467185,
            0.13631667617371096,
            0.865120805827464,
            0.6512973844135275,
            1.1797271882608054,
            0.6244804152759527,
            -0.5570457482857482,
            0.2647575580547544,
            -0.2068879525836704,
            -0.08864937428312593,
            -0.12097527264215262,
            -0.5926157830588259,
            -0.829558994552203,
            -0.7763963527020644,
            -0.8032831287874718,
            -1.0509009744371616,
            0.3898116470495581,
            0.53597964954664,
            -0.7103168610451086,
            0.14134662791263478,
            -1.0553070315316257,
            -0.7637823831567494,
            0.6660743555148038,
            0.2999072162504126,
            0.43344494859154037,
            -0.037204028044356616,
            -0.015027314370516767,
            -1.2713471602153903,
            0.13685215749852672,
            -0.7455601140022122,
            -1.1053161006995822,
            0.4325893333216249,
            0.5125169238061628,
            0.10506955817638282,
            -0.525621705143562,
            -0.42353179066166835,
            -0.5269765606115016,
            0.5770775134347684,
            0.05043281347453735,
            -0.17840835378435818,
            -0.6098252538238959,
            -0.38988489432110746,
            0.536293956787178,
            -0.9893371083450208,
            -0.5752636084615712,
            0.17313627234690357,
            0.16626155721254243,
            -0.07573586446077245
        ],
        [
            -0.6553368577130716,
            -0.8211404213567531,
            0.6955218521433881,
            -0.016978109679357922,
            -0.8218711310517439,
            0.03426573586857373,
            0.1948039348430682,
            -0.11069250654891419,
            -0.9199174981628634,
            0.6310447050519676,
            -0.019221439404025934,
            0.0396716300445661,
            -0.3104092207182947,
            0.6087011471935821,
            -0.17820774388632687,
            -0.35209132550318156,
            0.5073053974811024,
            -0.637914846162596,
            0.3098932897036701,
            -0.10542186794205298,
            -0.8493754445818531,
            0.3439714956614298,
            -0.10716765408161866,
            0.7561277151785522,
            -0.11925088732092629,
            0.6564262793943403,
            0.3512605150985274,
            0.007780018738641076,
            -1.0272186401800028,
            0.6626133433988332,
            -0.3041412801562304,
            -0.8486800368506512,
            -0.6340882687847852,
            0.006476985773604138,
            0.38736211733000403,
            -0.481167863041147,
            0.5294699424028324,
            -0.6225072363153925,
            -0.19593402659810177,
            -0.38023438059340636,
            0.7282340363378683,
            -0.5348308794395163,
            -0.883395966875818,
            -0.8846070644103088,
            -0.3472072519205634,
            0.844035289630489,
            0.14960690972221788,
            0.4461344657087682,
            -0.4019959692739713,
            -0.8544381214667002,
            -0.4037239551836811,
            -0.09587388554338089,
            -0.03416618394739712,
            -0.7820426616951028,
            -0.6642682619060596,
            0.8459877590304445,
            -0.4488926023624711,
            -0.7134009459636338,
            -0.4564896243487589,
            0.12187731712270436,
            -0.784873175593263,
            -0.9034160974125753,
            0.1162052426514406,
            -0.44881006450189204,
            -0.08896184698501526,
            -0.1980375275743345,
            -0.7571357171516628,
            -0.7750324529529328,
            0.6132452230721634,
            -1.0573380441946423,
            -1.028626449143803,
            -0.1967806761217804,
            -0.2830192014256784,
            -0.9046723738622497,
            -0.7999979504856767,
            -0.37095003126434356,
            0.1477231377329458,
            0.3876093677224686,
            -0.4307899935615506,
            -0.07499368493216262,
            -0.840885341405068,
            0.7498114538301677,
            0.8969357709345569,
            -0.6685038727682442,
            -0.46414890393351443,
            -1.0066671044065534,
            0.7214435719133904,
            0.7457675405837162,
            -0.3050469914522174,
            0.4067243251089142,
            -0.7008637983101413,
            -0.6693328292302065,
            0.39973117967900296,
            -0.23466442525279355,
            -1.0173606473886487,
            -1.0013574462935417,
            -0.6201973002746098,
            0.29156457147716136,
            -0.7275541909493509,
            0.37346250325061253,
            -0.8466293749938512,
            0.517784701509999,
            -0.2085067429504686,
            0.13203742876208804,
            -0.06915916875139493,
            0.6945727172312949,
            0.30124269561512823,
            0.49331172862962575,
            0.06584351822635684,
            -0.11881134427374815,
            -0.47452724806369706,
            0.368507975177413,
            0.22903633365188025,
            -1.0166903094187891,
            -0.8825037672116826,
            0.5060684391801304,
            -0.48642542705060293,
            0.14791620461645544,
            0.15903197533528948,
            0.7996190673262534,
            0.5003540783240213,
            -0.3644923477546768,
            0.6280287969279766,
            0.45839843025650484,
            0.6580427479631366,
            0.43374228727946834,
            -0.7712220357464872,
            0.25894885738202517,
            -0.6364082096791632,
            -0.8395957490336153,
            -0.1520772839448792,
            0.9350118134663543,
            -0.2838259882380424,
            -0.45909852564050596,
            0.32520818212063846,
            0.2070406744107308,
            0.5505187598010103,
            0.48363540971074404,
            0.055464826788814994,
            0.19434174655823228,
            -0.4822739122149527,
            -0.17116429904343064,
            0.8973046185772835,
            0.14130015702088933,
            -0.09959327347748105,
            -0.7635394180492807,
            0.13640623167605373,
            -0.08866820327323435,
            -0.5887054214759323,
            -0.8241425448897362,
            0.5836967972774246,
            0.533928730711203,
            0.729131243016562,
            -0.5233044503482167,
            -0.17535135096183743,
            0.6169519551605386,
            0.4483986463417461,
            -0.2373808669279572,
            0.8840553861582185,
            0.9910247816976279,
            -0.2771003596319493,
            0.06803036403678246,
            -0.7681792655956955,
            -0.24192963034901796,
            0.07738067546206842,
            -0.37110086142581883,
            0.20834156555185823,
            -0.9326779888135955,
            0.028649030330138974,
            -0.02160836089466559,
            0.7399186818071537,
            0.6119535544270392,
            0.22216725845552313,
            -0.4965000437907617,
            0.15689725912002112,
            -0.017860225033327775,
            -0.5474627657953484,
            -0.6551958431191148,
            -0.6564199658467323,
            -0.6187591179321235,
            0.8436722738716373,
            -0.0732524021526528,
            0.2253961515059575,
            0.21084816326836187,
            0.7633995071854233,
            -1.0946847658102183,
            -0.8192161763843219,
            0.5403582008139446,
            -0.5469670363468233,
            0.37213958868565716,
            -0.7541757413320298,
            0.3364069572866556,
            -0.93894287569183,
            0.18919114729891948,
            -0.966960888962595,
            0.48845032839032876
        ],
        [
            0.3917473511813033,
            0.1494114765080505,
            0.012050708985110863,
            -1.2154698385557614,
            -1.0444946931596546,
            -1.2628073283530923,
            0.4666363177312659,
            0.7039000870479933,
            -0.16534135333511332,
            -0.6015189797606639,
            -0.7329761896971803,
            -0.1152480909911246,
            0.5120199154359458,
            -0.23522427207286986,
            0.2468693975028805,
            0.0646058328732323,
            -1.1182522770974532,
            -0.32482688545216754,
            0.3865187089778597,
            -0.33271479908861207,
            -0.2773369143838134,
            -0.2763060818294533,
            -0.7838073928073381,
            -0.11423653865788956,
            0.40576665639093207,
            -0.3759168186065962,
            0.5293017719173915,
            -1.2694728171974863,
            -0.5468476489263203,
            0.4004151607077971,
            0.29631701590615134,
            0.7405165996311845,
            -0.3707292781304673,
            -0.06371547850938601,
            0.4000930989753425,
            1.2741022295562396,
            -0.11160288538833238,
            0.9853402744912698,
            0.08731384680796589,
            -0.4670728861791108,
            0.08300042254358177,
            -0.9727125439261433,
            -0.0909927132058241,
            0.4616709315669986,
            -0.29141193109150676,
            -0.07470462919593097,
            0.07205478360770518,
            -0.210369522825269,
            0.43566022648355035,
            1.899841627263448,
            0.8311108505464254,
            0.2961071271222925,
            0.04699640063004518,
            0.24322625223836075,
            0.23284063901477844,
            -0.2474206328038963,
            0.5267251095704434,
            -0.3357932924283174,
            -1.4033209896996302,
            -1.790131166491255,
            -1.030967623267404,
            -1.2870873086326233,
            -0.3479094062593269,
            -0.34721968376623735,
            -0.6908757349354712,
            -0.864181113297933,
            -1.668896080987639,
            0.3334199353338296,
            -0.48538538901092904,
            -0.2666750319423053,
            -0.0839724174281015,
            -0.6773969478102396,
            -1.2017076505719433,
            -0.6827789044020405,
            -0.25152120233769176,
            -0.8508538757009054,
            -0.9191383207645838,
            -0.7122420850930676,
            -0.9471296698896892,
            -0.4602373809113526,
            -0.1776878038411768,
            -0.3392341972814115,
            0.842459647994614,
            -0.7874199181295533,
            -0.5795701710690293,
            -0.28997942685003536,
            -0.6590555014494308,
            0.17770098541435922,
            -0.012789818456855576,
            0.7260976598437868,
            3.524952180197725,
            1.8302988483719904,
            -1.0304435523750786,
            0.8513116385139844,
            -0.36686506019091913,
            0.4863881914689036,
            -1.212228969012906,
            -0.43917063800736544,
            -1.092095162740018,
            -0.38773962956139935,
            0.3228695325806105,
            1.3738399109151782,
            0.5504420114918963,
            2.893675184146993,
            3.7533053029287795,
            1.242650547617301,
            -0.2778709308919066,
            -1.777787035294295,
            0.014188953898047434,
            -0.2274582033212163,
            -0.8519478277623548,
            -0.17349669005202215,
            -0.35475011997017347,
            -0.34340507981837465,
            0.8651923058719817,
            0.2581918945352052,
            1.948352832553548,
            2.611556136698214,
            1.0590036578732591,
            -0.4616659817073429,
            -1.619938511769827,
            -0.8570985892106953,
            -0.3320561346849243,
            0.4123458253675067,
            -0.6154089518839049,
            0.5835061463225817,
            0.5654833042556774,
            0.23320930404109652,
            -0.8245735234104571,
            1.4329369067544162,
            0.989323631927686,
            0.8620661785442533,
            -0.09416280888650841,
            -0.8243817204390718,
            1.4980651486001793,
            1.4077572906298168,
            1.5199589552696537,
            0.8535870136393572,
            0.285467807299228,
            0.3055761115873869,
            -1.1063785876905445,
            -0.44072524354519294,
            0.6902703434990991,
            1.2844013680651887,
            1.4480643443207395,
            0.17049123958375245,
            -0.18480954615111525,
            1.6967438427377934,
            0.9090174720205497,
            1.3762822917082762,
            1.1363228563961822,
            1.0297899706145044,
            0.7204220663339908,
            -1.2697257805781446,
            -1.2765994131242502,
            -0.5670951443800147,
            -0.4226467375107675,
            0.4242509030249787,
            -0.5555024073317646,
            0.5804777399442774,
            -0.3553019018663186,
            -0.5159219091511866,
            0.4631417891566134,
            0.9932376149361806,
            -0.37674310141206074,
            -0.04196630138762293,
            -0.7423688747190529,
            0.283501772173355,
            -0.07795291798360027,
            -0.9078670403548011,
            -0.5263275262324822,
            -1.0003832160292063,
            -0.36918794615507466,
            0.5618556289008635,
            0.2319585154088165,
            -1.6697334517393048,
            -1.151940555591361,
            -0.7816000957352788,
            0.6906300326680345,
            0.009495094007273105,
            0.5778981827007922,
            -1.0737817580682152,
            0.2090125075137145,
            -0.6603543082127412,
            0.14426317100432476,
            -0.05939321478792225,
            -0.9684061437607752,
            -0.4974727574074406,
            -0.35432079439401015,
            0.07535332165194153,
            -0.3302807447045718,
            -0.35038307331370055,
            0.06740022158869803,
            0.34743697855173,
            -1.137365654394934,
            -0.8142972689978383
        ],
        [
            -0.8749204210210425,
            -1.04415049187348,
            0.42192527504820276,
            -0.8477270123774965,
            0.5820183885759632,
            0.7757735168629978,
            0.5019624580027963,
            -0.581657929398192,
            -0.7728735909725178,
            0.24176107638455754,
            -0.6983438100819994,
            -0.2911253875460513,
            0.11060218524252308,
            0.7636375280401153,
            -0.7038090179806336,
            -0.02204927873009098,
            0.7165711617441493,
            0.3983254124246052,
            0.1649795051746663,
            -1.0301589771133302,
            -0.27172614531548056,
            -0.3881557758258236,
            -0.9795833189417054,
            0.8949471431478966,
            -0.8481455223781169,
            -0.708001670052053,
            -0.2526357209224912,
            -0.7851004416814082,
            0.3236972163889318,
            -0.6649879481696024,
            -0.524099259741104,
            -0.100074356843665,
            0.8996043604804858,
            -0.708515374687202,
            0.25900784126611853,
            0.055610963821360805,
            -0.6027230986888804,
            0.5290859219094816,
            -0.6454144391620252,
            0.47518723030615195,
            -0.5093746670249972,
            -0.242525553601441,
            -0.38274425217511127,
            -0.772762735778622,
            0.7873466692789863,
            0.08856029926839103,
            -0.090347631291423,
            -0.11413277445876362,
            0.6270053863105604,
            -0.5275381447178732,
            -0.9151835889809772,
            0.8151317354116483,
            -0.5097858987824989,
            -0.33091133595544875,
            0.7751160209854666,
            -0.08877772644872639,
            -0.6620531566065702,
            0.07935492046298209,
            -0.001522689947763141,
            -0.4596147353351795,
            -0.45561285047637207,
            0.41280914153962217,
            0.36719876347998837,
            0.3904465834425184,
            0.8322555655643293,
            0.11829665734179942,
            0.5556718032520469,
            0.48667497331245874,
            0.7610505665520424,
            0.3669357572108084,
            0.4215564022309159,
            -0.448054549733589,
            -0.922213395403271,
            0.8122457618098264,
            -0.9969977622824268,
            0.2080456211763093,
            0.05596728704043066,
            -0.7149608712709018,
            -0.2044368952938701,
            -0.3467394898187359,
            -0.20038860767201788,
            -0.3982518850525935,
            -0.6229917028397878,
            0.7311866746566988,
            -0.6707785260296798,
            0.36014325772577976,
            -0.856774471715389,
            0.179778370954116,
            -0.13119186714451544,
            -0.5622589728375517,
            0.8941103274269611,
            0.888027764687795,
            -0.7790473394843583,
            0.5211289617046415,
            0.9748549505150698,
            -0.705632721599709,
            0.7626748722272582,
            -0.46146789197065646,
            0.8669083279138479,
            0.6019085413046286,
            -0.5374192575066001,
            0.8634554380092776,
            -0.9106626115925956,
            0.2492611391844965,
            -0.6457523654039918,
            0.16836609904982383,
            0.2932781758482074,
            -0.38252299421933705,
            0.7387207721883011,
            0.6857448606643496,
            -0.7541534551398938,
            0.001955721171583302,
            -0.2758500291182613,
            0.5871941073269143,
            -0.7520157898190155,
            0.03853434310451122,
            0.9739712740604068,
            0.9673135694185249,
            -0.603330377009655,
            -0.8936289287839272,
            -0.6657953123536587,
            -0.4133234690357064,
            -0.5882943932567363,
            0.26342427961000475,
            0.8700849967457913,
            -0.22820352488937318,
            0.7154567443384663,
            0.8755587486728242,
            -0.9684261078191099,
            0.4557782834364808,
            0.6148217714658887,
            -0.3770426329984562,
            -0.0037098400615325775,
            0.37078978099190907,
            0.8215073786491771,
            -0.8963398024228117,
            -0.27711693090164324,
            0.4030888631137106,
            -0.6211974989047948,
            -0.9937053272722062,
            -0.6660521159472258,
            -0.4030447210471417,
            -0.31846686747391884,
            -0.5098453663786121,
            -0.9266675255153652,
            -0.1787815569593085,
            -0.303098641384094,
            -0.3098476710434262,
            -0.04870625994837818,
            -0.2806892782058801,
            0.28809336822198883,
            0.20504327592771007,
            0.8980807809544562,
            -0.4617414215190831,
            0.24025267465696737,
            -0.5511127241493488,
            -0.5394747434184619,
            -0.07737416700774133,
            0.4574370047455928,
            -0.37645997232760453,
            -0.9968986477335344,
            0.5892502022247709,
            0.07721619998794274,
            -0.04911236324167792,
            0.6370713699450502,
            0.012809263183775782,
            0.6737778747382265,
            0.5283176803307847,
            0.40826973862233173,
            0.6935278484683262,
            -0.33019166242329295,
            0.4460599124359097,
            0.14876533268991943,
            -0.1656795958414277,
            -0.29264528792302996,
            -0.8542919977588549,
            0.8427918978149537,
            -0.01783689085209645,
            0.2474233440533301,
            0.061677133801967536,
            0.6930457578744126,
            -0.15787294575627556,
            -0.5285949172324449,
            -0.7117636007694303,
            -0.9249411308164711,
            -0.7481676073924672,
            0.49512875459800737,
            0.17282795058785358,
            -0.2827787886884009,
            -0.9634927794855895,
            -0.6205798939944616,
            -0.5103262128126689,
            -0.8720378556753822,
            -0.05042309706644842,
            -0.5878433108577216,
            0.03130861446266938
        ],
        [
            0.3261149323509376,
            0.8240421543537101,
            1.0726469337562672,
            0.46275172787512464,
            0.6792520111157399,
            0.07305854878003817,
            -0.7686149163915103,
            0.2575849747012118,
            -0.7639483771556066,
            -0.8147583043597415,
            0.515144336078526,
            0.13028995652221764,
            0.37687061147910306,
            0.7283732658892516,
            0.926872358543899,
            0.6795216124868474,
            0.6177166744700742,
            -0.4968646361723097,
            -0.5288551904178811,
            0.7896300408909845,
            -0.2679342538739372,
            0.9296210003387397,
            -0.1922259729978631,
            1.3111888781809733,
            0.03303099359083282,
            0.9120791309484664,
            -0.6488722652472072,
            0.17166685109016097,
            0.7555095889489952,
            0.7064473859617038,
            0.22881206875069682,
            -0.8410319046754563,
            -0.008142341004784786,
            -0.38087262399413374,
            -1.551312132182541,
            -0.8538415009595733,
            -0.4593935903929403,
            0.4252535589727851,
            1.5668016744140156,
            1.2055525144569132,
            0.6596837605605765,
            0.9741654106183703,
            0.3265714999125504,
            0.24605629348053162,
            0.263280687600812,
            -0.8747630519141143,
            -1.4317876636957996,
            -0.8463550089676345,
            -1.3351544181469488,
            -1.24068970581467,
            -0.41598539970898124,
            -1.6580937765459791,
            -0.14180182043070047,
            0.2264596674204326,
            0.5798557570916332,
            0.320049916015413,
            -0.5294204292816564,
            -0.3001495490071588,
            -1.5541286285414184,
            -0.7556147409772501,
            -1.7321552459239622,
            -1.8358296806776737,
            -0.8362793900600918,
            -2.120195304739866,
            -1.2550823510711082,
            -0.36856936013471614,
            -1.7475661864215946,
            -0.9236731021709632,
            0.8785462344592363,
            0.2791920827764708,
            0.26806474060707697,
            0.823269229175408,
            -0.013879047065008608,
            -0.45604943696489647,
            -0.6332998961574311,
            -0.9303239613785875,
            0.7206721457682398,
            0.7737364806741934,
            -0.4535221964933299,
            -0.4575532786112644,
            -0.4386833232776031,
            0.36399809821171963,
            0.2709485255212178,
            -0.02395800325237015,
            -0.011944637273272938,
            1.0300732704587774,
            0.846977253927698,
            0.20239115924478399,
            1.9456939948345071,
            0.9762214044900713,
            0.7062820344475274,
            0.8960391699667292,
            -0.43664929170035727,
            -0.7298821625831073,
            -0.5400132101895758,
            -0.007362560483115172,
            0.42604986463596706,
            -0.38728175584336877,
            0.00956807474788462,
            0.6957694015692611,
            0.8819451315856139,
            2.416196032862835,
            1.8520717301625296,
            0.6432898298837005,
            1.1025416787121556,
            1.078519341134274,
            -0.7619651734807678,
            0.32213314522303377,
            0.6943415388858557,
            0.3930221072767727,
            -0.04294912313567893,
            -0.20653629238440357,
            -0.4874215973817463,
            0.008841099052709456,
            -0.31158698129133044,
            -0.9817565916294184,
            -0.4780620271252631,
            0.8596300058050896,
            1.1032030022717478,
            1.3463246292137452,
            -0.46581733534813136,
            0.5084178678508646,
            0.8731881181927178,
            0.07905715227248278,
            0.11357678730869081,
            1.050653302488886,
            1.1665495819214489,
            0.271387217502286,
            -1.335206644173038,
            -0.8900100621557212,
            1.0345256165569043,
            0.6926943831005048,
            1.0342162522870362,
            1.3296002955513118,
            0.19990329413054925,
            -0.3775395989715012,
            -1.5201648626409114,
            -0.14702959555083908,
            -1.1713021178050116,
            0.19552440037699403,
            0.381872133126679,
            -0.593211069089576,
            -0.6893893135235643,
            -1.4397244967503773,
            -0.5743739777666639,
            0.5568479031697875,
            0.30279468073118904,
            0.8402524938785668,
            0.7861501505330779,
            -0.3343276026131004,
            -1.6304149751938406,
            0.14898540652249842,
            0.04514257959988796,
            0.8714189838712348,
            -0.7957549992131857,
            0.07367840851802276,
            0.7792163206314414,
            -0.7563363021435094,
            -0.27861517058223617,
            -1.5825726796799098,
            -0.921288735898419,
            -0.7023781031819439,
            0.8693764371811689,
            -0.7423381082682413,
            -0.2894062903280597,
            -0.8817539395293148,
            -0.49453397242367403,
            -0.2421477442888841,
            0.3433990988898835,
            -0.6075404333371272,
            0.7201250620638797,
            -0.27658676166931956,
            -0.9998572452450226,
            -0.7489077123902647,
            -1.3957684786709776,
            -1.1163325521116552,
            -0.8665077437864591,
            0.4991018094068581,
            -0.43992095919689433,
            -0.012994310972208507,
            0.9062472983823999,
            0.6487622556638323,
            0.4144607678816592,
            1.0861121449046636,
            0.7862654746636172,
            0.15630046246375953,
            -0.06682439525097489,
            -0.03548966786092217,
            0.14140840157896623,
            -0.8495178782200462,
            -0.5106480451078625,
            -0.23068163367564273,
            -0.8146728934943144,
            -0.0242048844866456,
            0.7549940826441516,
            1.065013633036054
        ],
        [
            0.388008668196143,
            -0.2650616709108039,
            -0.161963043816012,
            -0.7664337514874816,
            -0.008290452204847185,
            -0.5613717112876575,
            -0.05741589791250369,
            -0.6173209072186008,
            -0.7246416754482612,
            -0.8134398798649383,
            0.8945993544224554,
            -0.3910638519412647,
            -0.8846430071901299,
            0.25927790845674714,
            0.8524528180335615,
            -0.5247700080247619,
            0.45577515457013756,
            0.3590226649448444,
            0.577787674228873,
            -0.6278331400125376,
            -0.8565296208938691,
            -0.5618464592539436,
            0.09158548248029245,
            0.5972149236463713,
            -0.6723720367133614,
            0.4744053183814542,
            -0.5037471723387525,
            -0.23238396591111396,
            -0.8632254341152413,
            -0.677947734024244,
            -0.38297298320293915,
            0.5885667064748651,
            -0.36135424465881194,
            1.002636410948089,
            0.20539379196972096,
            -0.20188934040138168,
            -0.8479775400200935,
            -0.7034558942148582,
            -0.5071436165564877,
            0.40064842919353627,
            0.059911730316475856,
            0.7757848086163202,
            0.2113162439468158,
            0.09131632570857781,
            -0.5370735702629967,
            1.0197015027902645,
            0.5590734929640031,
            -0.6650962760957291,
            0.7074088086462438,
            -0.6032812846038071,
            -0.37244565768634497,
            -0.8394237735679618,
            -0.2852031348584724,
            0.6813883470746622,
            0.8641379888177081,
            0.2194648192709286,
            0.7254081884320719,
            -0.597199328506566,
            -0.5023245770481847,
            -0.506551849397726,
            -0.30752563305542774,
            -0.025593061868813747,
            0.9437309430478268,
            0.006184424739622126,
            0.6568172367181431,
            0.5117904878664966,
            -0.43865079443700855,
            -0.9653116382268667,
            -0.9245798387310473,
            -0.4895593345024014,
            -0.3487330627481425,
            0.2166496882583842,
            0.6690099939367246,
            -0.5092818551323667,
            -0.21814398460005785,
            0.6217591474690431,
            -0.21345368798243558,
            -0.8481136557959932,
            0.4421539571716755,
            0.5032495729379577,
            -0.5753700535357826,
            0.31143965645184807,
            0.7348948682094522,
            -0.49113411119363304,
            -0.12751521434963403,
            -0.39382710710233115,
            -0.5544043297785863,
            -0.44556600939862,
            0.3844550823002252,
            0.2555499089592854,
            0.7837618877281087,
            0.2885984291277323,
            -0.675143985602287,
            -0.7141540252641753,
            -0.3992297640646159,
            0.34117606956222646,
            -0.26191012671740005,
            -0.9627602050288464,
            0.23309705553859633,
            0.0891908910897733,
            -0.3990599194278145,
            0.32250816971724067,
